=== Run information ===

Scheme:       weka.classifiers.trees.J48 -C 0.25 -M 2
Relation:     NSW-NB15 Dataframe
Instances:    82332
Attributes:   43
              dur
              proto
              service
              state
              spkts
              dpkts
              sbytes
              dbytes
              rate
              sttl
              dttl
              sload
              dload
              sloss
              dloss
              sinpkt
              dinpkt
              sjit
              djit
              swin
              stcpb
              dtcpb
              dwin
              tcprtt
              synack
              ackdat
              smean
              dmean
              trans_depth
              response_body_len
              ct_srv_src
              ct_state_ttl
              ct_dst_ltm
              ct_src_dport_ltm
              ct_dst_sport_ltm
              ct_dst_src_ltm
              is_ftp_login
              ct_ftp_cmd
              ct_flw_http_mthd
              ct_src_ltm
              ct_srv_dst
              is_sm_ips_ports
              attack_cat
Test mode:    10-fold cross-validation

=== Classifier model (full training set) ===

J48 pruned tree
------------------

sbytes <= 114
|   sbytes <= 112
|   |   ct_dst_sport_ltm <= 2
|   |   |   proto <= 114
|   |   |   |   sbytes <= 94
|   |   |   |   |   smean <= 44
|   |   |   |   |   |   proto <= 46: Normal (45.0)
|   |   |   |   |   |   proto > 46
|   |   |   |   |   |   |   sloss <= 0: Exploits (58.0/28.0)
|   |   |   |   |   |   |   sloss > 0: Normal (6.0)
|   |   |   |   |   smean > 44: Normal (2047.0)
|   |   |   |   sbytes > 94
|   |   |   |   |   sttl <= 32: Normal (5.0)
|   |   |   |   |   sttl > 32
|   |   |   |   |   |   ct_srv_dst <= 3
|   |   |   |   |   |   |   rate <= 111111.1072
|   |   |   |   |   |   |   |   djit <= 117.173281: Exploits (40.0/19.0)
|   |   |   |   |   |   |   |   djit > 117.173281: Reconnaissance (2.0/1.0)
|   |   |   |   |   |   |   rate > 111111.1072: DoS (16.0/4.0)
|   |   |   |   |   |   ct_srv_dst > 3
|   |   |   |   |   |   |   dur <= 0.316301: DoS (20.0/6.0)
|   |   |   |   |   |   |   dur > 0.316301: Fuzzers (2.0)
|   |   |   proto > 114
|   |   |   |   sload <= 4892928
|   |   |   |   |   ct_srv_dst <= 1
|   |   |   |   |   |   sbytes <= 78: Backdoor (4.0)
|   |   |   |   |   |   sbytes > 78: Exploits (4.0)
|   |   |   |   |   ct_srv_dst > 1
|   |   |   |   |   |   ct_srv_dst <= 2
|   |   |   |   |   |   |   ct_src_ltm <= 1: Normal (2.0/1.0)
|   |   |   |   |   |   |   ct_src_ltm > 1: Exploits (13.0/5.0)
|   |   |   |   |   |   ct_srv_dst > 2: Normal (3.0)
|   |   |   |   sload > 4892928
|   |   |   |   |   ct_dst_src_ltm <= 1
|   |   |   |   |   |   ct_srv_dst <= 2
|   |   |   |   |   |   |   smean <= 51
|   |   |   |   |   |   |   |   smean <= 39
|   |   |   |   |   |   |   |   |   sbytes <= 76
|   |   |   |   |   |   |   |   |   |   rate <= 125000.0003: DoS (2.0)
|   |   |   |   |   |   |   |   |   |   rate > 125000.0003: Normal (2.0/1.0)
|   |   |   |   |   |   |   |   |   sbytes > 76: Normal (15.0/1.0)
|   |   |   |   |   |   |   |   smean > 39
|   |   |   |   |   |   |   |   |   ct_src_ltm <= 3
|   |   |   |   |   |   |   |   |   |   sbytes <= 91
|   |   |   |   |   |   |   |   |   |   |   ct_srv_src <= 1: DoS (3.0)
|   |   |   |   |   |   |   |   |   |   |   ct_srv_src > 1
|   |   |   |   |   |   |   |   |   |   |   |   sbytes <= 84: Exploits (2.0)
|   |   |   |   |   |   |   |   |   |   |   |   sbytes > 84: DoS (3.0/1.0)
|   |   |   |   |   |   |   |   |   |   sbytes > 91
|   |   |   |   |   |   |   |   |   |   |   ct_srv_src <= 1: Generic (5.0)
|   |   |   |   |   |   |   |   |   |   |   ct_srv_src > 1
|   |   |   |   |   |   |   |   |   |   |   |   ct_srv_dst <= 1
|   |   |   |   |   |   |   |   |   |   |   |   |   rate <= 105263.1626: Generic (4.0/1.0)
|   |   |   |   |   |   |   |   |   |   |   |   |   rate > 105263.1626: DoS (3.0)
|   |   |   |   |   |   |   |   |   |   |   |   ct_srv_dst > 1: Generic (2.0)
|   |   |   |   |   |   |   |   |   ct_src_ltm > 3: Exploits (2.0/1.0)
|   |   |   |   |   |   |   smean > 51
|   |   |   |   |   |   |   |   sbytes <= 104
|   |   |   |   |   |   |   |   |   ct_srv_dst <= 1: Normal (120.0/3.0)
|   |   |   |   |   |   |   |   |   ct_srv_dst > 1
|   |   |   |   |   |   |   |   |   |   ct_dst_ltm <= 3
|   |   |   |   |   |   |   |   |   |   |   rate <= 105263.1626: Fuzzers (7.0/2.0)
|   |   |   |   |   |   |   |   |   |   |   rate > 105263.1626: Normal (45.0/9.0)
|   |   |   |   |   |   |   |   |   |   ct_dst_ltm > 3: Fuzzers (2.0)
|   |   |   |   |   |   |   |   sbytes > 104
|   |   |   |   |   |   |   |   |   ct_srv_src <= 3: DoS (4.0/1.0)
|   |   |   |   |   |   |   |   |   ct_srv_src > 3: Shellcode (2.0)
|   |   |   |   |   |   ct_srv_dst > 2
|   |   |   |   |   |   |   sbytes <= 98
|   |   |   |   |   |   |   |   ct_srv_src <= 6: Normal (13.0/1.0)
|   |   |   |   |   |   |   |   ct_srv_src > 6: Fuzzers (10.0)
|   |   |   |   |   |   |   sbytes > 98
|   |   |   |   |   |   |   |   rate <= 105263.1626: Fuzzers (62.0)
|   |   |   |   |   |   |   |   rate > 105263.1626
|   |   |   |   |   |   |   |   |   rate <= 111111.1072
|   |   |   |   |   |   |   |   |   |   ct_srv_src <= 6: Normal (15.0)
|   |   |   |   |   |   |   |   |   |   ct_srv_src > 6: Fuzzers (3.0)
|   |   |   |   |   |   |   |   |   rate > 111111.1072
|   |   |   |   |   |   |   |   |   |   ct_srv_src <= 1: Normal (2.0)
|   |   |   |   |   |   |   |   |   |   ct_srv_src > 1: Fuzzers (120.0/8.0)
|   |   |   |   |   ct_dst_src_ltm > 1
|   |   |   |   |   |   sinpkt <= 0.009
|   |   |   |   |   |   |   ct_srv_src <= 11
|   |   |   |   |   |   |   |   ct_dst_sport_ltm <= 1
|   |   |   |   |   |   |   |   |   ct_src_ltm <= 1: Normal (427.0/3.0)
|   |   |   |   |   |   |   |   |   ct_src_ltm > 1
|   |   |   |   |   |   |   |   |   |   ct_dst_src_ltm <= 5
|   |   |   |   |   |   |   |   |   |   |   ct_srv_dst <= 3: Normal (171.0/5.0)
|   |   |   |   |   |   |   |   |   |   |   ct_srv_dst > 3
|   |   |   |   |   |   |   |   |   |   |   |   ct_dst_src_ltm <= 2
|   |   |   |   |   |   |   |   |   |   |   |   |   ct_srv_src <= 7: Normal (29.0/3.0)
|   |   |   |   |   |   |   |   |   |   |   |   |   ct_srv_src > 7: Fuzzers (9.0)
|   |   |   |   |   |   |   |   |   |   |   |   ct_dst_src_ltm > 2
|   |   |   |   |   |   |   |   |   |   |   |   |   ct_dst_src_ltm <= 4: Normal (97.0)
|   |   |   |   |   |   |   |   |   |   |   |   |   ct_dst_src_ltm > 4
|   |   |   |   |   |   |   |   |   |   |   |   |   |   ct_src_dport_ltm <= 1
|   |   |   |   |   |   |   |   |   |   |   |   |   |   |   ct_srv_src <= 7
|   |   |   |   |   |   |   |   |   |   |   |   |   |   |   |   sbytes <= 91: Normal (7.0)
|   |   |   |   |   |   |   |   |   |   |   |   |   |   |   |   sbytes > 91
|   |   |   |   |   |   |   |   |   |   |   |   |   |   |   |   |   ct_src_ltm <= 2: Fuzzers (6.0)
|   |   |   |   |   |   |   |   |   |   |   |   |   |   |   |   |   ct_src_ltm > 2: Normal (4.0/1.0)
|   |   |   |   |   |   |   |   |   |   |   |   |   |   |   ct_srv_src > 7: Normal (10.0)
|   |   |   |   |   |   |   |   |   |   |   |   |   |   ct_src_dport_ltm > 1: Normal (78.0/3.0)
|   |   |   |   |   |   |   |   |   |   ct_dst_src_ltm > 5: Normal (182.0)
|   |   |   |   |   |   |   |   ct_dst_sport_ltm > 1
|   |   |   |   |   |   |   |   |   sbytes <= 91
|   |   |   |   |   |   |   |   |   |   ct_srv_src <= 3: DoS (2.0)
|   |   |   |   |   |   |   |   |   |   ct_srv_src > 3: Normal (54.0)
|   |   |   |   |   |   |   |   |   sbytes > 91
|   |   |   |   |   |   |   |   |   |   rate <= 111111.1072: Normal (18.0)
|   |   |   |   |   |   |   |   |   |   rate > 111111.1072
|   |   |   |   |   |   |   |   |   |   |   ct_dst_ltm <= 2
|   |   |   |   |   |   |   |   |   |   |   |   ct_dst_src_ltm <= 2
|   |   |   |   |   |   |   |   |   |   |   |   |   ct_srv_dst <= 4
|   |   |   |   |   |   |   |   |   |   |   |   |   |   ct_src_ltm <= 2
|   |   |   |   |   |   |   |   |   |   |   |   |   |   |   ct_srv_src <= 3
|   |   |   |   |   |   |   |   |   |   |   |   |   |   |   |   rate <= 166666.6608: Fuzzers (4.0)
|   |   |   |   |   |   |   |   |   |   |   |   |   |   |   |   rate > 166666.6608
|   |   |   |   |   |   |   |   |   |   |   |   |   |   |   |   |   rate <= 333333.3215: Normal (6.0)
|   |   |   |   |   |   |   |   |   |   |   |   |   |   |   |   |   rate > 333333.3215: Fuzzers (2.0)
|   |   |   |   |   |   |   |   |   |   |   |   |   |   |   ct_srv_src > 3: Normal (2.0)
|   |   |   |   |   |   |   |   |   |   |   |   |   |   ct_src_ltm > 2: Normal (10.0)
|   |   |   |   |   |   |   |   |   |   |   |   |   ct_srv_dst > 4: Fuzzers (4.0)
|   |   |   |   |   |   |   |   |   |   |   |   ct_dst_src_ltm > 2: Normal (36.0)
|   |   |   |   |   |   |   |   |   |   |   ct_dst_ltm > 2
|   |   |   |   |   |   |   |   |   |   |   |   ct_src_ltm <= 2: Normal (6.0)
|   |   |   |   |   |   |   |   |   |   |   |   ct_src_ltm > 2
|   |   |   |   |   |   |   |   |   |   |   |   |   ct_dst_ltm <= 4
|   |   |   |   |   |   |   |   |   |   |   |   |   |   rate <= 125000.0003: Normal (2.0)
|   |   |   |   |   |   |   |   |   |   |   |   |   |   rate > 125000.0003: Fuzzers (8.0)
|   |   |   |   |   |   |   |   |   |   |   |   |   ct_dst_ltm > 4: Normal (4.0)
|   |   |   |   |   |   |   ct_srv_src > 11
|   |   |   |   |   |   |   |   ct_dst_src_ltm <= 6
|   |   |   |   |   |   |   |   |   ct_srv_dst <= 4: Normal (18.0)
|   |   |   |   |   |   |   |   |   ct_srv_dst > 4
|   |   |   |   |   |   |   |   |   |   ct_dst_src_ltm <= 4: Fuzzers (41.0)
|   |   |   |   |   |   |   |   |   |   ct_dst_src_ltm > 4
|   |   |   |   |   |   |   |   |   |   |   ct_dst_ltm <= 4: Normal (15.0)
|   |   |   |   |   |   |   |   |   |   |   ct_dst_ltm > 4: Fuzzers (14.0)
|   |   |   |   |   |   |   |   ct_dst_src_ltm > 6
|   |   |   |   |   |   |   |   |   ct_dst_ltm <= 11: Normal (148.0)
|   |   |   |   |   |   |   |   |   ct_dst_ltm > 11: Fuzzers (7.0)
|   |   |   |   |   |   sinpkt > 0.009
|   |   |   |   |   |   |   ct_src_dport_ltm <= 1: Normal (52.0)
|   |   |   |   |   |   |   ct_src_dport_ltm > 1
|   |   |   |   |   |   |   |   ct_dst_src_ltm <= 6
|   |   |   |   |   |   |   |   |   ct_srv_src <= 8
|   |   |   |   |   |   |   |   |   |   ct_src_dport_ltm <= 4
|   |   |   |   |   |   |   |   |   |   |   ct_dst_src_ltm <= 2
|   |   |   |   |   |   |   |   |   |   |   |   ct_dst_sport_ltm <= 1: Fuzzers (11.0/1.0)
|   |   |   |   |   |   |   |   |   |   |   |   ct_dst_sport_ltm > 1
|   |   |   |   |   |   |   |   |   |   |   |   |   rate <= 95238.09599: Fuzzers (2.0)
|   |   |   |   |   |   |   |   |   |   |   |   |   rate > 95238.09599: Normal (2.0)
|   |   |   |   |   |   |   |   |   |   |   ct_dst_src_ltm > 2: Normal (18.0)
|   |   |   |   |   |   |   |   |   |   ct_src_dport_ltm > 4: Fuzzers (5.0)
|   |   |   |   |   |   |   |   |   ct_srv_src > 8: Fuzzers (44.0/1.0)
|   |   |   |   |   |   |   |   ct_dst_src_ltm > 6: Normal (22.0)
|   |   ct_dst_sport_ltm > 2
|   |   |   spkts <= 1: DoS (67.0/25.0)
|   |   |   spkts > 1: Normal (51.0)
|   sbytes > 112
|   |   ct_srv_src <= 2
|   |   |   service <= 1: Shellcode (3.0/1.0)
|   |   |   service > 1
|   |   |   |   sttl <= 63: DoS (2.0)
|   |   |   |   sttl > 63: Generic (36.0)
|   |   ct_srv_src > 2: Generic (18117.0/1.0)
sbytes > 114
|   sttl <= 60: Normal (16856.0)
|   sttl > 60
|   |   dbytes <= 1492
|   |   |   sbytes <= 200
|   |   |   |   ct_dst_src_ltm <= 1
|   |   |   |   |   dur <= 0.00111
|   |   |   |   |   |   proto <= 109
|   |   |   |   |   |   |   sbytes <= 166: Exploits (20.0/8.0)
|   |   |   |   |   |   |   sbytes > 166
|   |   |   |   |   |   |   |   proto <= 71: Normal (3.0)
|   |   |   |   |   |   |   |   proto > 71: Exploits (7.0/5.0)
|   |   |   |   |   |   proto > 109
|   |   |   |   |   |   |   proto <= 117
|   |   |   |   |   |   |   |   sttl <= 63
|   |   |   |   |   |   |   |   |   service <= 1: DoS (4.0)
|   |   |   |   |   |   |   |   |   service > 1
|   |   |   |   |   |   |   |   |   |   sbytes <= 132: DoS (2.0)
|   |   |   |   |   |   |   |   |   |   sbytes > 132: Exploits (9.0)
|   |   |   |   |   |   |   |   sttl > 63
|   |   |   |   |   |   |   |   |   sbytes <= 166
|   |   |   |   |   |   |   |   |   |   service <= 1
|   |   |   |   |   |   |   |   |   |   |   ct_srv_src <= 2: Shellcode (31.0/4.0)
|   |   |   |   |   |   |   |   |   |   |   ct_srv_src > 2
|   |   |   |   |   |   |   |   |   |   |   |   sbytes <= 142
|   |   |   |   |   |   |   |   |   |   |   |   |   rate <= 333333.3215: Reconnaissance (4.0/1.0)
|   |   |   |   |   |   |   |   |   |   |   |   |   rate > 333333.3215: DoS (2.0)
|   |   |   |   |   |   |   |   |   |   |   |   sbytes > 142: Shellcode (3.0/1.0)
|   |   |   |   |   |   |   |   |   |   service > 1
|   |   |   |   |   |   |   |   |   |   |   service <= 6
|   |   |   |   |   |   |   |   |   |   |   |   sbytes <= 116: Reconnaissance (4.0)
|   |   |   |   |   |   |   |   |   |   |   |   sbytes > 116: DoS (14.0/3.0)
|   |   |   |   |   |   |   |   |   |   |   service > 6: Reconnaissance (25.0/6.0)
|   |   |   |   |   |   |   |   |   sbytes > 166
|   |   |   |   |   |   |   |   |   |   sbytes <= 168: Reconnaissance (1170.0/1.0)
|   |   |   |   |   |   |   |   |   |   sbytes > 168
|   |   |   |   |   |   |   |   |   |   |   sbytes <= 172: DoS (5.0/2.0)
|   |   |   |   |   |   |   |   |   |   |   sbytes > 172: Shellcode (27.0/5.0)
|   |   |   |   |   |   |   proto > 117
|   |   |   |   |   |   |   |   rate <= 111111.1072: Exploits (14.0/10.0)
|   |   |   |   |   |   |   |   rate > 111111.1072: Generic (2.0)
|   |   |   |   |   dur > 0.00111
|   |   |   |   |   |   dloss <= 0
|   |   |   |   |   |   |   dpkts <= 1: Normal (10.0/3.0)
|   |   |   |   |   |   |   dpkts > 1
|   |   |   |   |   |   |   |   proto <= 106: DoS (7.0)
|   |   |   |   |   |   |   |   proto > 106
|   |   |   |   |   |   |   |   |   smean <= 64: DoS (8.0/1.0)
|   |   |   |   |   |   |   |   |   smean > 64: Exploits (14.0/1.0)
|   |   |   |   |   |   dloss > 0: Fuzzers (3.0/1.0)
|   |   |   |   ct_dst_src_ltm > 1
|   |   |   |   |   sloss <= 2
|   |   |   |   |   |   ct_srv_src <= 9
|   |   |   |   |   |   |   sbytes <= 198
|   |   |   |   |   |   |   |   proto <= 103: Exploits (191.0/116.0)
|   |   |   |   |   |   |   |   proto > 103
|   |   |   |   |   |   |   |   |   dmean <= 44
|   |   |   |   |   |   |   |   |   |   service <= 0
|   |   |   |   |   |   |   |   |   |   |   sbytes <= 168
|   |   |   |   |   |   |   |   |   |   |   |   sbytes <= 166
|   |   |   |   |   |   |   |   |   |   |   |   |   ct_dst_src_ltm <= 2
|   |   |   |   |   |   |   |   |   |   |   |   |   |   ct_dst_ltm <= 1: Normal (4.0/1.0)
|   |   |   |   |   |   |   |   |   |   |   |   |   |   ct_dst_ltm > 1: DoS (10.0/3.0)
|   |   |   |   |   |   |   |   |   |   |   |   |   ct_dst_src_ltm > 2: Normal (16.0)
|   |   |   |   |   |   |   |   |   |   |   |   sbytes > 166: Reconnaissance (97.0/1.0)
|   |   |   |   |   |   |   |   |   |   |   sbytes > 168: Normal (56.0)
|   |   |   |   |   |   |   |   |   |   service > 0
|   |   |   |   |   |   |   |   |   |   |   spkts <= 2
|   |   |   |   |   |   |   |   |   |   |   |   sttl <= 63: Exploits (11.0)
|   |   |   |   |   |   |   |   |   |   |   |   sttl > 63
|   |   |   |   |   |   |   |   |   |   |   |   |   ct_srv_src <= 1: DoS (4.0/2.0)
|   |   |   |   |   |   |   |   |   |   |   |   |   ct_srv_src > 1: Generic (5.0)
|   |   |   |   |   |   |   |   |   |   |   spkts > 2: Normal (2.0)
|   |   |   |   |   |   |   |   |   dmean > 44
|   |   |   |   |   |   |   |   |   |   ct_srv_dst <= 1
|   |   |   |   |   |   |   |   |   |   |   dur <= 0.133381: DoS (2.0)
|   |   |   |   |   |   |   |   |   |   |   dur > 0.133381: Exploits (2.0)
|   |   |   |   |   |   |   |   |   |   ct_srv_dst > 1: Exploits (30.0/1.0)
|   |   |   |   |   |   |   sbytes > 198
|   |   |   |   |   |   |   |   rate <= 105263.1626: Exploits (204.0/146.0)
|   |   |   |   |   |   |   |   rate > 105263.1626
|   |   |   |   |   |   |   |   |   ct_dst_ltm <= 6: DoS (4280.0/2393.0)
|   |   |   |   |   |   |   |   |   ct_dst_ltm > 6: Exploits (42.0/30.0)
|   |   |   |   |   |   ct_srv_src > 9
|   |   |   |   |   |   |   ct_dst_sport_ltm <= 1
|   |   |   |   |   |   |   |   ct_src_dport_ltm <= 1: Reconnaissance (7.0/1.0)
|   |   |   |   |   |   |   |   ct_src_dport_ltm > 1
|   |   |   |   |   |   |   |   |   ct_dst_src_ltm <= 9: Fuzzers (21.0/2.0)
|   |   |   |   |   |   |   |   |   ct_dst_src_ltm > 9: Normal (15.0/1.0)
|   |   |   |   |   |   |   ct_dst_sport_ltm > 1
|   |   |   |   |   |   |   |   sbytes <= 190
|   |   |   |   |   |   |   |   |   service <= 1
|   |   |   |   |   |   |   |   |   |   ct_srv_src <= 12: DoS (167.0/93.0)
|   |   |   |   |   |   |   |   |   |   ct_srv_src > 12: Exploits (84.0/60.0)
|   |   |   |   |   |   |   |   |   service > 1: Exploits (18.0)
|   |   |   |   |   |   |   |   sbytes > 190: Exploits (2630.0/1877.0)
|   |   |   |   |   sloss > 2: Normal (177.0)
|   |   |   sbytes > 200
|   |   |   |   proto <= 108
|   |   |   |   |   ct_srv_dst <= 1
|   |   |   |   |   |   sbytes <= 11856
|   |   |   |   |   |   |   ct_state_ttl <= 4
|   |   |   |   |   |   |   |   dur <= 30.358606
|   |   |   |   |   |   |   |   |   sbytes <= 508: DoS (31.0/11.0)
|   |   |   |   |   |   |   |   |   sbytes > 508
|   |   |   |   |   |   |   |   |   |   dpkts <= 1
|   |   |   |   |   |   |   |   |   |   |   ct_src_ltm <= 1: Exploits (226.0/116.0)
|   |   |   |   |   |   |   |   |   |   |   ct_src_ltm > 1
|   |   |   |   |   |   |   |   |   |   |   |   dur <= 7.552544: Exploits (58.0/25.0)
|   |   |   |   |   |   |   |   |   |   |   |   dur > 7.552544
|   |   |   |   |   |   |   |   |   |   |   |   |   dur <= 14.923265: DoS (7.0/1.0)
|   |   |   |   |   |   |   |   |   |   |   |   |   dur > 14.923265: Exploits (17.0/6.0)
|   |   |   |   |   |   |   |   |   |   dpkts > 1
|   |   |   |   |   |   |   |   |   |   |   dinpkt <= 0.005: DoS (5.0/1.0)
|   |   |   |   |   |   |   |   |   |   |   dinpkt > 0.005: Exploits (38.0/16.0)
|   |   |   |   |   |   |   |   dur > 30.358606: DoS (9.0)
|   |   |   |   |   |   |   ct_state_ttl > 4: DoS (12.0)
|   |   |   |   |   |   sbytes > 11856: Exploits (129.0/49.0)
|   |   |   |   |   ct_srv_dst > 1
|   |   |   |   |   |   smean <= 759
|   |   |   |   |   |   |   dpkts <= 1
|   |   |   |   |   |   |   |   sbytes <= 9212
|   |   |   |   |   |   |   |   |   sjit <= 40.118876: Exploits (28.0/14.0)
|   |   |   |   |   |   |   |   |   sjit > 40.118876
|   |   |   |   |   |   |   |   |   |   rate <= 3.603764
|   |   |   |   |   |   |   |   |   |   |   ct_state_ttl <= 4
|   |   |   |   |   |   |   |   |   |   |   |   ct_src_ltm <= 8
|   |   |   |   |   |   |   |   |   |   |   |   |   sjit <= 1530.280472: Exploits (93.0/62.0)
|   |   |   |   |   |   |   |   |   |   |   |   |   sjit > 1530.280472: Fuzzers (28.0/18.0)
|   |   |   |   |   |   |   |   |   |   |   |   ct_src_ltm > 8: DoS (37.0/21.0)
|   |   |   |   |   |   |   |   |   |   |   ct_state_ttl > 4
|   |   |   |   |   |   |   |   |   |   |   |   smean <= 190: DoS (16.0/8.0)
|   |   |   |   |   |   |   |   |   |   |   |   smean > 190: Fuzzers (2.0)
|   |   |   |   |   |   |   |   |   |   rate > 3.603764
|   |   |   |   |   |   |   |   |   |   |   proto <= 78
|   |   |   |   |   |   |   |   |   |   |   |   ct_src_ltm <= 2
|   |   |   |   |   |   |   |   |   |   |   |   |   dur <= 1.36633: Exploits (12.0/6.0)
|   |   |   |   |   |   |   |   |   |   |   |   |   dur > 1.36633: DoS (28.0/10.0)
|   |   |   |   |   |   |   |   |   |   |   |   ct_src_ltm > 2: Fuzzers (26.0/18.0)
|   |   |   |   |   |   |   |   |   |   |   proto > 78: DoS (14.0/8.0)
|   |   |   |   |   |   |   |   sbytes > 9212: Fuzzers (52.0/32.0)
|   |   |   |   |   |   |   dpkts > 1
|   |   |   |   |   |   |   |   dur <= 0.479961: Exploits (14.0/4.0)
|   |   |   |   |   |   |   |   dur > 0.479961: DoS (14.0/6.0)
|   |   |   |   |   |   smean > 759: Normal (5.0)
|   |   |   |   proto > 108
|   |   |   |   |   ct_dst_src_ltm <= 1
|   |   |   |   |   |   ct_srv_dst <= 1
|   |   |   |   |   |   |   sbytes <= 564
|   |   |   |   |   |   |   |   sbytes <= 562
|   |   |   |   |   |   |   |   |   dloss <= 1
|   |   |   |   |   |   |   |   |   |   sbytes <= 532
|   |   |   |   |   |   |   |   |   |   |   state <= 1686
|   |   |   |   |   |   |   |   |   |   |   |   service <= 1
|   |   |   |   |   |   |   |   |   |   |   |   |   sttl <= 63: DoS (2.0)
|   |   |   |   |   |   |   |   |   |   |   |   |   sttl > 63
|   |   |   |   |   |   |   |   |   |   |   |   |   |   dur <= 2.64213
|   |   |   |   |   |   |   |   |   |   |   |   |   |   |   ct_src_ltm <= 4
|   |   |   |   |   |   |   |   |   |   |   |   |   |   |   |   smean <= 154: Shellcode (39.0/4.0)
|   |   |   |   |   |   |   |   |   |   |   |   |   |   |   |   smean > 154
|   |   |   |   |   |   |   |   |   |   |   |   |   |   |   |   |   sbytes <= 504
|   |   |   |   |   |   |   |   |   |   |   |   |   |   |   |   |   |   ct_srv_src <= 1: Shellcode (26.0/9.0)
|   |   |   |   |   |   |   |   |   |   |   |   |   |   |   |   |   |   ct_srv_src > 1
|   |   |   |   |   |   |   |   |   |   |   |   |   |   |   |   |   |   |   ct_src_ltm <= 1
|   |   |   |   |   |   |   |   |   |   |   |   |   |   |   |   |   |   |   |   ct_srv_src <= 2: Shellcode (4.0)
|   |   |   |   |   |   |   |   |   |   |   |   |   |   |   |   |   |   |   |   ct_srv_src > 2: Exploits (4.0/1.0)
|   |   |   |   |   |   |   |   |   |   |   |   |   |   |   |   |   |   |   ct_src_ltm > 1
|   |   |   |   |   |   |   |   |   |   |   |   |   |   |   |   |   |   |   |   ct_srv_src <= 4: Exploits (5.0/2.0)
|   |   |   |   |   |   |   |   |   |   |   |   |   |   |   |   |   |   |   |   ct_srv_src > 4: Shellcode (9.0)
|   |   |   |   |   |   |   |   |   |   |   |   |   |   |   |   |   sbytes > 504
|   |   |   |   |   |   |   |   |   |   |   |   |   |   |   |   |   |   sbytes <= 518: DoS (3.0)
|   |   |   |   |   |   |   |   |   |   |   |   |   |   |   |   |   |   sbytes > 518: Shellcode (2.0)
|   |   |   |   |   |   |   |   |   |   |   |   |   |   |   ct_src_ltm > 4: Normal (4.0/1.0)
|   |   |   |   |   |   |   |   |   |   |   |   |   |   dur > 2.64213
|   |   |   |   |   |   |   |   |   |   |   |   |   |   |   ct_srv_src <= 1: Normal (7.0)
|   |   |   |   |   |   |   |   |   |   |   |   |   |   |   ct_srv_src > 1: Shellcode (2.0)
|   |   |   |   |   |   |   |   |   |   |   |   service > 1
|   |   |   |   |   |   |   |   |   |   |   |   |   sload <= 178181824
|   |   |   |   |   |   |   |   |   |   |   |   |   |   sbytes <= 284: DoS (3.0/1.0)
|   |   |   |   |   |   |   |   |   |   |   |   |   |   sbytes > 284: Generic (2.0)
|   |   |   |   |   |   |   |   |   |   |   |   |   sload > 178181824: Exploits (2.0)
|   |   |   |   |   |   |   |   |   |   |   state > 1686
|   |   |   |   |   |   |   |   |   |   |   |   smean <= 55
|   |   |   |   |   |   |   |   |   |   |   |   |   synack <= 0.067096
|   |   |   |   |   |   |   |   |   |   |   |   |   |   sjit <= 6097.874374
|   |   |   |   |   |   |   |   |   |   |   |   |   |   |   ct_src_ltm <= 3
|   |   |   |   |   |   |   |   |   |   |   |   |   |   |   |   service <= 1
|   |   |   |   |   |   |   |   |   |   |   |   |   |   |   |   |   spkts <= 9
|   |   |   |   |   |   |   |   |   |   |   |   |   |   |   |   |   |   sjit <= 1716.855214: DoS (7.0)
|   |   |   |   |   |   |   |   |   |   |   |   |   |   |   |   |   |   sjit > 1716.855214: Exploits (6.0)
|   |   |   |   |   |   |   |   |   |   |   |   |   |   |   |   |   spkts > 9
|   |   |   |   |   |   |   |   |   |   |   |   |   |   |   |   |   |   sbytes <= 500
|   |   |   |   |   |   |   |   |   |   |   |   |   |   |   |   |   |   |   ackdat <= 0.030066: Generic (3.0/1.0)
|   |   |   |   |   |   |   |   |   |   |   |   |   |   |   |   |   |   |   ackdat > 0.030066: DoS (19.0/4.0)
|   |   |   |   |   |   |   |   |   |   |   |   |   |   |   |   |   |   sbytes > 500
|   |   |   |   |   |   |   |   |   |   |   |   |   |   |   |   |   |   |   dtcpb <= 643930356: Normal (3.0/1.0)
|   |   |   |   |   |   |   |   |   |   |   |   |   |   |   |   |   |   |   dtcpb > 643930356
|   |   |   |   |   |   |   |   |   |   |   |   |   |   |   |   |   |   |   |   dpkts <= 7
|   |   |   |   |   |   |   |   |   |   |   |   |   |   |   |   |   |   |   |   |   djit <= 60.734199
|   |   |   |   |   |   |   |   |   |   |   |   |   |   |   |   |   |   |   |   |   |   dtcpb <= 1797799559: Shellcode (3.0)
|   |   |   |   |   |   |   |   |   |   |   |   |   |   |   |   |   |   |   |   |   |   dtcpb > 1797799559: Exploits (5.0/1.0)
|   |   |   |   |   |   |   |   |   |   |   |   |   |   |   |   |   |   |   |   |   djit > 60.734199
|   |   |   |   |   |   |   |   |   |   |   |   |   |   |   |   |   |   |   |   |   |   sbytes <= 502: Exploits (2.0)
|   |   |   |   |   |   |   |   |   |   |   |   |   |   |   |   |   |   |   |   |   |   sbytes > 502: DoS (7.0)
|   |   |   |   |   |   |   |   |   |   |   |   |   |   |   |   |   |   |   |   dpkts > 7: Shellcode (3.0/1.0)
|   |   |   |   |   |   |   |   |   |   |   |   |   |   |   |   service > 1
|   |   |   |   |   |   |   |   |   |   |   |   |   |   |   |   |   service <= 3: Reconnaissance (2.0)
|   |   |   |   |   |   |   |   |   |   |   |   |   |   |   |   |   service > 3
|   |   |   |   |   |   |   |   |   |   |   |   |   |   |   |   |   |   sbytes <= 484: DoS (3.0)
|   |   |   |   |   |   |   |   |   |   |   |   |   |   |   |   |   |   sbytes > 484: Exploits (3.0)
|   |   |   |   |   |   |   |   |   |   |   |   |   |   |   ct_src_ltm > 3: Exploits (5.0/1.0)
|   |   |   |   |   |   |   |   |   |   |   |   |   |   sjit > 6097.874374
|   |   |   |   |   |   |   |   |   |   |   |   |   |   |   synack <= 0.047058: Reconnaissance (5.0)
|   |   |   |   |   |   |   |   |   |   |   |   |   |   |   synack > 0.047058: DoS (4.0/1.0)
|   |   |   |   |   |   |   |   |   |   |   |   |   synack > 0.067096
|   |   |   |   |   |   |   |   |   |   |   |   |   |   smean <= 48: DoS (6.0)
|   |   |   |   |   |   |   |   |   |   |   |   |   |   smean > 48
|   |   |   |   |   |   |   |   |   |   |   |   |   |   |   service <= 1
|   |   |   |   |   |   |   |   |   |   |   |   |   |   |   |   sload <= 2955.498047
|   |   |   |   |   |   |   |   |   |   |   |   |   |   |   |   |   ct_srv_src <= 2: Normal (4.0)
|   |   |   |   |   |   |   |   |   |   |   |   |   |   |   |   |   ct_srv_src > 2: Fuzzers (4.0/1.0)
|   |   |   |   |   |   |   |   |   |   |   |   |   |   |   |   sload > 2955.498047
|   |   |   |   |   |   |   |   |   |   |   |   |   |   |   |   |   dtcpb <= 2340254433
|   |   |   |   |   |   |   |   |   |   |   |   |   |   |   |   |   |   synack <= 0.095657: Shellcode (3.0/1.0)
|   |   |   |   |   |   |   |   |   |   |   |   |   |   |   |   |   |   synack > 0.095657: Generic (3.0)
|   |   |   |   |   |   |   |   |   |   |   |   |   |   |   |   |   dtcpb > 2340254433
|   |   |   |   |   |   |   |   |   |   |   |   |   |   |   |   |   |   sjit <= 3359.278409: Normal (3.0)
|   |   |   |   |   |   |   |   |   |   |   |   |   |   |   |   |   |   sjit > 3359.278409: Shellcode (8.0/2.0)
|   |   |   |   |   |   |   |   |   |   |   |   |   |   |   service > 1: Fuzzers (4.0/1.0)
|   |   |   |   |   |   |   |   |   |   |   |   smean > 55
|   |   |   |   |   |   |   |   |   |   |   |   |   proto <= 114: Reconnaissance (11.0/1.0)
|   |   |   |   |   |   |   |   |   |   |   |   |   proto > 114: Backdoor (2.0/1.0)
|   |   |   |   |   |   |   |   |   |   sbytes > 532
|   |   |   |   |   |   |   |   |   |   |   state <= 14849: Normal (302.0/19.0)
|   |   |   |   |   |   |   |   |   |   |   state > 14849
|   |   |   |   |   |   |   |   |   |   |   |   sbytes <= 534: Normal (3.0/1.0)
|   |   |   |   |   |   |   |   |   |   |   |   sbytes > 534
|   |   |   |   |   |   |   |   |   |   |   |   |   ct_srv_src <= 1
|   |   |   |   |   |   |   |   |   |   |   |   |   |   tcprtt <= 0.062747: DoS (3.0)
|   |   |   |   |   |   |   |   |   |   |   |   |   |   tcprtt > 0.062747: Shellcode (4.0)
|   |   |   |   |   |   |   |   |   |   |   |   |   ct_srv_src > 1: Shellcode (5.0)
|   |   |   |   |   |   |   |   |   dloss > 1
|   |   |   |   |   |   |   |   |   |   smean <= 45
|   |   |   |   |   |   |   |   |   |   |   sbytes <= 452: Reconnaissance (2.0)
|   |   |   |   |   |   |   |   |   |   |   sbytes > 452: Backdoor (2.0)
|   |   |   |   |   |   |   |   |   |   smean > 45
|   |   |   |   |   |   |   |   |   |   |   service <= 2
|   |   |   |   |   |   |   |   |   |   |   |   dmean <= 46: Exploits (7.0/1.0)
|   |   |   |   |   |   |   |   |   |   |   |   dmean > 46
|   |   |   |   |   |   |   |   |   |   |   |   |   dbytes <= 564
|   |   |   |   |   |   |   |   |   |   |   |   |   |   ct_srv_src <= 2
|   |   |   |   |   |   |   |   |   |   |   |   |   |   |   state <= 14866: Generic (2.0)
|   |   |   |   |   |   |   |   |   |   |   |   |   |   |   state > 14866
|   |   |   |   |   |   |   |   |   |   |   |   |   |   |   |   synack <= 0.007665: Exploits (3.0/1.0)
|   |   |   |   |   |   |   |   |   |   |   |   |   |   |   |   synack > 0.007665: Backdoor (12.0)
|   |   |   |   |   |   |   |   |   |   |   |   |   |   ct_srv_src > 2: Exploits (3.0/1.0)
|   |   |   |   |   |   |   |   |   |   |   |   |   dbytes > 564
|   |   |   |   |   |   |   |   |   |   |   |   |   |   dtcpb <= 2174652484: Backdoor (3.0)
|   |   |   |   |   |   |   |   |   |   |   |   |   |   dtcpb > 2174652484: DoS (4.0)
|   |   |   |   |   |   |   |   |   |   |   service > 2
|   |   |   |   |   |   |   |   |   |   |   |   service <= 4: Exploits (33.0)
|   |   |   |   |   |   |   |   |   |   |   |   service > 4: Generic (2.0)
|   |   |   |   |   |   |   |   sbytes > 562
|   |   |   |   |   |   |   |   |   dur <= 0.622748
|   |   |   |   |   |   |   |   |   |   dpkts <= 7: Shellcode (2.0)
|   |   |   |   |   |   |   |   |   |   dpkts > 7: Reconnaissance (8.0)
|   |   |   |   |   |   |   |   |   dur > 0.622748: Reconnaissance (911.0/1.0)
|   |   |   |   |   |   |   sbytes > 564
|   |   |   |   |   |   |   |   dur <= 0.820022
|   |   |   |   |   |   |   |   |   dpkts <= 3
|   |   |   |   |   |   |   |   |   |   proto <= 114: Normal (20.0)
|   |   |   |   |   |   |   |   |   |   proto > 114
|   |   |   |   |   |   |   |   |   |   |   spkts <= 1: Fuzzers (5.0)
|   |   |   |   |   |   |   |   |   |   |   spkts > 1
|   |   |   |   |   |   |   |   |   |   |   |   sbytes <= 1080
|   |   |   |   |   |   |   |   |   |   |   |   |   sbytes <= 1038
|   |   |   |   |   |   |   |   |   |   |   |   |   |   sttl <= 63: Generic (2.0)
|   |   |   |   |   |   |   |   |   |   |   |   |   |   sttl > 63
|   |   |   |   |   |   |   |   |   |   |   |   |   |   |   sbytes <= 592
|   |   |   |   |   |   |   |   |   |   |   |   |   |   |   |   ct_srv_src <= 4: DoS (4.0/1.0)
|   |   |   |   |   |   |   |   |   |   |   |   |   |   |   |   ct_srv_src > 4: Generic (2.0)
|   |   |   |   |   |   |   |   |   |   |   |   |   |   |   sbytes > 592
|   |   |   |   |   |   |   |   |   |   |   |   |   |   |   |   rate <= 111111.1072
|   |   |   |   |   |   |   |   |   |   |   |   |   |   |   |   |   ct_dst_ltm <= 1
|   |   |   |   |   |   |   |   |   |   |   |   |   |   |   |   |   |   sbytes <= 746
|   |   |   |   |   |   |   |   |   |   |   |   |   |   |   |   |   |   |   rate <= 95238.09599
|   |   |   |   |   |   |   |   |   |   |   |   |   |   |   |   |   |   |   |   ct_src_ltm <= 1: Exploits (3.0/1.0)
|   |   |   |   |   |   |   |   |   |   |   |   |   |   |   |   |   |   |   |   ct_src_ltm > 1: Shellcode (4.0)
|   |   |   |   |   |   |   |   |   |   |   |   |   |   |   |   |   |   |   rate > 95238.09599
|   |   |   |   |   |   |   |   |   |   |   |   |   |   |   |   |   |   |   |   ct_src_ltm <= 2
|   |   |   |   |   |   |   |   |   |   |   |   |   |   |   |   |   |   |   |   |   ct_srv_src <= 2: Shellcode (7.0/3.0)
|   |   |   |   |   |   |   |   |   |   |   |   |   |   |   |   |   |   |   |   |   ct_srv_src > 2: DoS (2.0/1.0)
|   |   |   |   |   |   |   |   |   |   |   |   |   |   |   |   |   |   |   |   ct_src_ltm > 2: Normal (2.0)
|   |   |   |   |   |   |   |   |   |   |   |   |   |   |   |   |   |   sbytes > 746
|   |   |   |   |   |   |   |   |   |   |   |   |   |   |   |   |   |   |   ct_srv_src <= 1: Exploits (9.0/2.0)
|   |   |   |   |   |   |   |   |   |   |   |   |   |   |   |   |   |   |   ct_srv_src > 1: Worms (3.0/1.0)
|   |   |   |   |   |   |   |   |   |   |   |   |   |   |   |   |   ct_dst_ltm > 1
|   |   |   |   |   |   |   |   |   |   |   |   |   |   |   |   |   |   sload <= 266400000: DoS (2.0/1.0)
|   |   |   |   |   |   |   |   |   |   |   |   |   |   |   |   |   |   sload > 266400000: Normal (2.0)
|   |   |   |   |   |   |   |   |   |   |   |   |   |   |   |   rate > 111111.1072
|   |   |   |   |   |   |   |   |   |   |   |   |   |   |   |   |   ct_src_ltm <= 2
|   |   |   |   |   |   |   |   |   |   |   |   |   |   |   |   |   |   ct_src_ltm <= 1
|   |   |   |   |   |   |   |   |   |   |   |   |   |   |   |   |   |   |   sload <= 366400000: Shellcode (4.0/1.0)
|   |   |   |   |   |   |   |   |   |   |   |   |   |   |   |   |   |   |   sload > 366400000
|   |   |   |   |   |   |   |   |   |   |   |   |   |   |   |   |   |   |   |   sload <= 891076928: Normal (10.0/4.0)
|   |   |   |   |   |   |   |   |   |   |   |   |   |   |   |   |   |   |   |   sload > 891076928: DoS (2.0/1.0)
|   |   |   |   |   |   |   |   |   |   |   |   |   |   |   |   |   |   ct_src_ltm > 1: Shellcode (6.0/2.0)
|   |   |   |   |   |   |   |   |   |   |   |   |   |   |   |   |   ct_src_ltm > 2: DoS (2.0)
|   |   |   |   |   |   |   |   |   |   |   |   |   sbytes > 1038: Normal (34.0/2.0)
|   |   |   |   |   |   |   |   |   |   |   |   sbytes > 1080
|   |   |   |   |   |   |   |   |   |   |   |   |   sbytes <= 1616
|   |   |   |   |   |   |   |   |   |   |   |   |   |   service <= 0
|   |   |   |   |   |   |   |   |   |   |   |   |   |   |   smean <= 640
|   |   |   |   |   |   |   |   |   |   |   |   |   |   |   |   rate <= 111111.1072
|   |   |   |   |   |   |   |   |   |   |   |   |   |   |   |   |   smean <= 564: Exploits (11.0/2.0)
|   |   |   |   |   |   |   |   |   |   |   |   |   |   |   |   |   smean > 564
|   |   |   |   |   |   |   |   |   |   |   |   |   |   |   |   |   |   rate <= 86956.51981
|   |   |   |   |   |   |   |   |   |   |   |   |   |   |   |   |   |   |   ct_src_ltm <= 1: Exploits (7.0/3.0)
|   |   |   |   |   |   |   |   |   |   |   |   |   |   |   |   |   |   |   ct_src_ltm > 1: DoS (2.0/1.0)
|   |   |   |   |   |   |   |   |   |   |   |   |   |   |   |   |   |   rate > 86956.51981
|   |   |   |   |   |   |   |   |   |   |   |   |   |   |   |   |   |   |   ct_srv_src <= 1: Generic (2.0)
|   |   |   |   |   |   |   |   |   |   |   |   |   |   |   |   |   |   |   ct_srv_src > 1: DoS (3.0/1.0)
|   |   |   |   |   |   |   |   |   |   |   |   |   |   |   |   rate > 111111.1072
|   |   |   |   |   |   |   |   |   |   |   |   |   |   |   |   |   ct_srv_src <= 4: Generic (11.0/3.0)
|   |   |   |   |   |   |   |   |   |   |   |   |   |   |   |   |   ct_srv_src > 4: Normal (2.0/1.0)
|   |   |   |   |   |   |   |   |   |   |   |   |   |   |   smean > 640: Generic (66.0/17.0)
|   |   |   |   |   |   |   |   |   |   |   |   |   |   service > 0
|   |   |   |   |   |   |   |   |   |   |   |   |   |   |   sttl <= 63: DoS (3.0/1.0)
|   |   |   |   |   |   |   |   |   |   |   |   |   |   |   sttl > 63: Exploits (3.0/1.0)
|   |   |   |   |   |   |   |   |   |   |   |   |   sbytes > 1616
|   |   |   |   |   |   |   |   |   |   |   |   |   |   rate <= 111111.1072: Exploits (47.0/22.0)
|   |   |   |   |   |   |   |   |   |   |   |   |   |   rate > 111111.1072
|   |   |   |   |   |   |   |   |   |   |   |   |   |   |   sbytes <= 2194
|   |   |   |   |   |   |   |   |   |   |   |   |   |   |   |   ct_src_ltm <= 1
|   |   |   |   |   |   |   |   |   |   |   |   |   |   |   |   |   sbytes <= 1866: Exploits (2.0)
|   |   |   |   |   |   |   |   |   |   |   |   |   |   |   |   |   sbytes > 1866
|   |   |   |   |   |   |   |   |   |   |   |   |   |   |   |   |   |   ct_srv_src <= 1: Normal (5.0/2.0)
|   |   |   |   |   |   |   |   |   |   |   |   |   |   |   |   |   |   ct_srv_src > 1
|   |   |   |   |   |   |   |   |   |   |   |   |   |   |   |   |   |   |   sbytes <= 2036: Normal (2.0/1.0)
|   |   |   |   |   |   |   |   |   |   |   |   |   |   |   |   |   |   |   sbytes > 2036: Generic (2.0)
|   |   |   |   |   |   |   |   |   |   |   |   |   |   |   |   ct_src_ltm > 1
|   |   |   |   |   |   |   |   |   |   |   |   |   |   |   |   |   ct_src_ltm <= 3
|   |   |   |   |   |   |   |   |   |   |   |   |   |   |   |   |   |   sbytes <= 1810: Normal (3.0/1.0)
|   |   |   |   |   |   |   |   |   |   |   |   |   |   |   |   |   |   sbytes > 1810: Fuzzers (6.0/1.0)
|   |   |   |   |   |   |   |   |   |   |   |   |   |   |   |   |   ct_src_ltm > 3: Normal (2.0)
|   |   |   |   |   |   |   |   |   |   |   |   |   |   |   sbytes > 2194
|   |   |   |   |   |   |   |   |   |   |   |   |   |   |   |   sload <= 1780000000: Exploits (5.0)
|   |   |   |   |   |   |   |   |   |   |   |   |   |   |   |   sload > 1780000000
|   |   |   |   |   |   |   |   |   |   |   |   |   |   |   |   |   rate <= 166666.6608: Fuzzers (4.0)
|   |   |   |   |   |   |   |   |   |   |   |   |   |   |   |   |   rate > 166666.6608
|   |   |   |   |   |   |   |   |   |   |   |   |   |   |   |   |   |   ct_srv_src <= 1: Exploits (5.0/2.0)
|   |   |   |   |   |   |   |   |   |   |   |   |   |   |   |   |   |   ct_srv_src > 1: Fuzzers (2.0)
|   |   |   |   |   |   |   |   |   dpkts > 3
|   |   |   |   |   |   |   |   |   |   dbytes <= 354
|   |   |   |   |   |   |   |   |   |   |   sbytes <= 1020
|   |   |   |   |   |   |   |   |   |   |   |   sbytes <= 758
|   |   |   |   |   |   |   |   |   |   |   |   |   service <= 1
|   |   |   |   |   |   |   |   |   |   |   |   |   |   spkts <= 9
|   |   |   |   |   |   |   |   |   |   |   |   |   |   |   state <= 20137: DoS (2.0)
|   |   |   |   |   |   |   |   |   |   |   |   |   |   |   state > 20137: Exploits (3.0)
|   |   |   |   |   |   |   |   |   |   |   |   |   |   spkts > 9
|   |   |   |   |   |   |   |   |   |   |   |   |   |   |   smean <= 75
|   |   |   |   |   |   |   |   |   |   |   |   |   |   |   |   sbytes <= 610
|   |   |   |   |   |   |   |   |   |   |   |   |   |   |   |   |   synack <= 0.006249: Exploits (2.0)
|   |   |   |   |   |   |   |   |   |   |   |   |   |   |   |   |   synack > 0.006249
|   |   |   |   |   |   |   |   |   |   |   |   |   |   |   |   |   |   smean <= 58
|   |   |   |   |   |   |   |   |   |   |   |   |   |   |   |   |   |   |   ackdat <= 0.040695: Normal (2.0/1.0)
|   |   |   |   |   |   |   |   |   |   |   |   |   |   |   |   |   |   |   ackdat > 0.040695: Shellcode (7.0)
|   |   |   |   |   |   |   |   |   |   |   |   |   |   |   |   |   |   smean > 58
|   |   |   |   |   |   |   |   |   |   |   |   |   |   |   |   |   |   |   sbytes <= 588: Normal (16.0/2.0)
|   |   |   |   |   |   |   |   |   |   |   |   |   |   |   |   |   |   |   sbytes > 588
|   |   |   |   |   |   |   |   |   |   |   |   |   |   |   |   |   |   |   |   smean <= 60: Shellcode (6.0)
|   |   |   |   |   |   |   |   |   |   |   |   |   |   |   |   |   |   |   |   smean > 60
|   |   |   |   |   |   |   |   |   |   |   |   |   |   |   |   |   |   |   |   |   dur <= 0.629101: Shellcode (3.0/1.0)
|   |   |   |   |   |   |   |   |   |   |   |   |   |   |   |   |   |   |   |   |   dur > 0.629101: Normal (2.0)
|   |   |   |   |   |   |   |   |   |   |   |   |   |   |   |   sbytes > 610
|   |   |   |   |   |   |   |   |   |   |   |   |   |   |   |   |   ct_src_ltm <= 13
|   |   |   |   |   |   |   |   |   |   |   |   |   |   |   |   |   |   ct_dst_ltm <= 1
|   |   |   |   |   |   |   |   |   |   |   |   |   |   |   |   |   |   |   synack <= 0.081317
|   |   |   |   |   |   |   |   |   |   |   |   |   |   |   |   |   |   |   |   smean <= 74: Shellcode (52.0/16.0)
|   |   |   |   |   |   |   |   |   |   |   |   |   |   |   |   |   |   |   |   smean > 74: Reconnaissance (2.0/1.0)
|   |   |   |   |   |   |   |   |   |   |   |   |   |   |   |   |   |   |   synack > 0.081317
|   |   |   |   |   |   |   |   |   |   |   |   |   |   |   |   |   |   |   |   smean <= 63: Shellcode (3.0/1.0)
|   |   |   |   |   |   |   |   |   |   |   |   |   |   |   |   |   |   |   |   smean > 63
|   |   |   |   |   |   |   |   |   |   |   |   |   |   |   |   |   |   |   |   |   state <= 12161: Normal (3.0)
|   |   |   |   |   |   |   |   |   |   |   |   |   |   |   |   |   |   |   |   |   state > 12161: Reconnaissance (2.0/1.0)
|   |   |   |   |   |   |   |   |   |   |   |   |   |   |   |   |   |   ct_dst_ltm > 1: Normal (2.0/1.0)
|   |   |   |   |   |   |   |   |   |   |   |   |   |   |   |   |   ct_src_ltm > 13: Normal (2.0/1.0)
|   |   |   |   |   |   |   |   |   |   |   |   |   |   |   smean > 75: Normal (10.0)
|   |   |   |   |   |   |   |   |   |   |   |   |   service > 1
|   |   |   |   |   |   |   |   |   |   |   |   |   |   dur <= 0.18337: DoS (3.0)
|   |   |   |   |   |   |   |   |   |   |   |   |   |   dur > 0.18337
|   |   |   |   |   |   |   |   |   |   |   |   |   |   |   sbytes <= 566: Fuzzers (2.0)
|   |   |   |   |   |   |   |   |   |   |   |   |   |   |   sbytes > 566
|   |   |   |   |   |   |   |   |   |   |   |   |   |   |   |   sload <= 22232.10352
|   |   |   |   |   |   |   |   |   |   |   |   |   |   |   |   |   sbytes <= 752: Exploits (18.0/5.0)
|   |   |   |   |   |   |   |   |   |   |   |   |   |   |   |   |   sbytes > 752: Reconnaissance (2.0/1.0)
|   |   |   |   |   |   |   |   |   |   |   |   |   |   |   |   sload > 22232.10352: Reconnaissance (6.0)
|   |   |   |   |   |   |   |   |   |   |   |   sbytes > 758
|   |   |   |   |   |   |   |   |   |   |   |   |   service <= 2
|   |   |   |   |   |   |   |   |   |   |   |   |   |   sttl <= 63
|   |   |   |   |   |   |   |   |   |   |   |   |   |   |   sbytes <= 832: Exploits (3.0)
|   |   |   |   |   |   |   |   |   |   |   |   |   |   |   sbytes > 832: Backdoor (2.0/1.0)
|   |   |   |   |   |   |   |   |   |   |   |   |   |   sttl > 63
|   |   |   |   |   |   |   |   |   |   |   |   |   |   |   sloss <= 1: Reconnaissance (4.0/1.0)
|   |   |   |   |   |   |   |   |   |   |   |   |   |   |   sloss > 1
|   |   |   |   |   |   |   |   |   |   |   |   |   |   |   |   ct_src_ltm <= 13
|   |   |   |   |   |   |   |   |   |   |   |   |   |   |   |   |   ct_src_dport_ltm <= 1
|   |   |   |   |   |   |   |   |   |   |   |   |   |   |   |   |   |   sbytes <= 872
|   |   |   |   |   |   |   |   |   |   |   |   |   |   |   |   |   |   |   synack <= 0.006315
|   |   |   |   |   |   |   |   |   |   |   |   |   |   |   |   |   |   |   |   dur <= 0.190783: Reconnaissance (2.0/1.0)
|   |   |   |   |   |   |   |   |   |   |   |   |   |   |   |   |   |   |   |   dur > 0.190783: Generic (2.0)
|   |   |   |   |   |   |   |   |   |   |   |   |   |   |   |   |   |   |   synack > 0.006315
|   |   |   |   |   |   |   |   |   |   |   |   |   |   |   |   |   |   |   |   ct_dst_ltm <= 1
|   |   |   |   |   |   |   |   |   |   |   |   |   |   |   |   |   |   |   |   |   ct_src_ltm <= 5
|   |   |   |   |   |   |   |   |   |   |   |   |   |   |   |   |   |   |   |   |   |   stcpb <= 4036969583
|   |   |   |   |   |   |   |   |   |   |   |   |   |   |   |   |   |   |   |   |   |   |   smean <= 81
|   |   |   |   |   |   |   |   |   |   |   |   |   |   |   |   |   |   |   |   |   |   |   |   ct_src_ltm <= 1
|   |   |   |   |   |   |   |   |   |   |   |   |   |   |   |   |   |   |   |   |   |   |   |   |   ct_srv_src <= 2
|   |   |   |   |   |   |   |   |   |   |   |   |   |   |   |   |   |   |   |   |   |   |   |   |   |   tcprtt <= 0.077108
|   |   |   |   |   |   |   |   |   |   |   |   |   |   |   |   |   |   |   |   |   |   |   |   |   |   |   smean <= 79
|   |   |   |   |   |   |   |   |   |   |   |   |   |   |   |   |   |   |   |   |   |   |   |   |   |   |   |   smean <= 76: Reconnaissance (2.0)
|   |   |   |   |   |   |   |   |   |   |   |   |   |   |   |   |   |   |   |   |   |   |   |   |   |   |   |   smean > 76: Exploits (6.0/1.0)
|   |   |   |   |   |   |   |   |   |   |   |   |   |   |   |   |   |   |   |   |   |   |   |   |   |   |   smean > 79: Shellcode (3.0/1.0)
|   |   |   |   |   |   |   |   |   |   |   |   |   |   |   |   |   |   |   |   |   |   |   |   |   |   tcprtt > 0.077108
|   |   |   |   |   |   |   |   |   |   |   |   |   |   |   |   |   |   |   |   |   |   |   |   |   |   |   stcpb <= 3159172733: DoS (4.0)
|   |   |   |   |   |   |   |   |   |   |   |   |   |   |   |   |   |   |   |   |   |   |   |   |   |   |   stcpb > 3159172733: Normal (3.0/2.0)
|   |   |   |   |   |   |   |   |   |   |   |   |   |   |   |   |   |   |   |   |   |   |   |   |   ct_srv_src > 2: Reconnaissance (3.0/1.0)
|   |   |   |   |   |   |   |   |   |   |   |   |   |   |   |   |   |   |   |   |   |   |   |   ct_src_ltm > 1: Reconnaissance (6.0/1.0)
|   |   |   |   |   |   |   |   |   |   |   |   |   |   |   |   |   |   |   |   |   |   |   smean > 81
|   |   |   |   |   |   |   |   |   |   |   |   |   |   |   |   |   |   |   |   |   |   |   |   dtcpb <= 167519286: Normal (2.0/1.0)
|   |   |   |   |   |   |   |   |   |   |   |   |   |   |   |   |   |   |   |   |   |   |   |   dtcpb > 167519286
|   |   |   |   |   |   |   |   |   |   |   |   |   |   |   |   |   |   |   |   |   |   |   |   |   stcpb <= 615619847: Exploits (4.0)
|   |   |   |   |   |   |   |   |   |   |   |   |   |   |   |   |   |   |   |   |   |   |   |   |   stcpb > 615619847
|   |   |   |   |   |   |   |   |   |   |   |   |   |   |   |   |   |   |   |   |   |   |   |   |   |   state <= 13321
|   |   |   |   |   |   |   |   |   |   |   |   |   |   |   |   |   |   |   |   |   |   |   |   |   |   |   sbytes <= 855
|   |   |   |   |   |   |   |   |   |   |   |   |   |   |   |   |   |   |   |   |   |   |   |   |   |   |   |   state <= 11101: Reconnaissance (7.0)
|   |   |   |   |   |   |   |   |   |   |   |   |   |   |   |   |   |   |   |   |   |   |   |   |   |   |   |   state > 11101: Exploits (3.0)
|   |   |   |   |   |   |   |   |   |   |   |   |   |   |   |   |   |   |   |   |   |   |   |   |   |   |   sbytes > 855: Exploits (5.0)
|   |   |   |   |   |   |   |   |   |   |   |   |   |   |   |   |   |   |   |   |   |   |   |   |   |   state > 13321
|   |   |   |   |   |   |   |   |   |   |   |   |   |   |   |   |   |   |   |   |   |   |   |   |   |   |   tcprtt <= 0.037118: Exploits (3.0/1.0)
|   |   |   |   |   |   |   |   |   |   |   |   |   |   |   |   |   |   |   |   |   |   |   |   |   |   |   tcprtt > 0.037118: Reconnaissance (16.0/1.0)
|   |   |   |   |   |   |   |   |   |   |   |   |   |   |   |   |   |   |   |   |   |   stcpb > 4036969583: Exploits (5.0)
|   |   |   |   |   |   |   |   |   |   |   |   |   |   |   |   |   |   |   |   |   ct_src_ltm > 5: Exploits (3.0)
|   |   |   |   |   |   |   |   |   |   |   |   |   |   |   |   |   |   |   |   ct_dst_ltm > 1: Exploits (4.0/1.0)
|   |   |   |   |   |   |   |   |   |   |   |   |   |   |   |   |   |   sbytes > 872
|   |   |   |   |   |   |   |   |   |   |   |   |   |   |   |   |   |   |   sinpkt <= 19.615889: Exploits (13.0/1.0)
|   |   |   |   |   |   |   |   |   |   |   |   |   |   |   |   |   |   |   sinpkt > 19.615889
|   |   |   |   |   |   |   |   |   |   |   |   |   |   |   |   |   |   |   |   ct_src_ltm <= 3
|   |   |   |   |   |   |   |   |   |   |   |   |   |   |   |   |   |   |   |   |   smean <= 92
|   |   |   |   |   |   |   |   |   |   |   |   |   |   |   |   |   |   |   |   |   |   stcpb <= 3761401039
|   |   |   |   |   |   |   |   |   |   |   |   |   |   |   |   |   |   |   |   |   |   |   dinpkt <= 73.555273
|   |   |   |   |   |   |   |   |   |   |   |   |   |   |   |   |   |   |   |   |   |   |   |   dpkts <= 7
|   |   |   |   |   |   |   |   |   |   |   |   |   |   |   |   |   |   |   |   |   |   |   |   |   dtcpb <= 1491658240: Exploits (8.0/1.0)
|   |   |   |   |   |   |   |   |   |   |   |   |   |   |   |   |   |   |   |   |   |   |   |   |   dtcpb > 1491658240
|   |   |   |   |   |   |   |   |   |   |   |   |   |   |   |   |   |   |   |   |   |   |   |   |   |   ct_srv_src <= 2
|   |   |   |   |   |   |   |   |   |   |   |   |   |   |   |   |   |   |   |   |   |   |   |   |   |   |   stcpb <= 926339640: Exploits (4.0)
|   |   |   |   |   |   |   |   |   |   |   |   |   |   |   |   |   |   |   |   |   |   |   |   |   |   |   stcpb > 926339640: Shellcode (2.0)
|   |   |   |   |   |   |   |   |   |   |   |   |   |   |   |   |   |   |   |   |   |   |   |   |   |   ct_srv_src > 2: Shellcode (4.0)
|   |   |   |   |   |   |   |   |   |   |   |   |   |   |   |   |   |   |   |   |   |   |   |   dpkts > 7
|   |   |   |   |   |   |   |   |   |   |   |   |   |   |   |   |   |   |   |   |   |   |   |   |   ct_srv_src <= 1: Shellcode (3.0)
|   |   |   |   |   |   |   |   |   |   |   |   |   |   |   |   |   |   |   |   |   |   |   |   |   ct_srv_src > 1: Exploits (2.0)
|   |   |   |   |   |   |   |   |   |   |   |   |   |   |   |   |   |   |   |   |   |   |   dinpkt > 73.555273
|   |   |   |   |   |   |   |   |   |   |   |   |   |   |   |   |   |   |   |   |   |   |   |   dtcpb <= 3875890342: Reconnaissance (5.0/1.0)
|   |   |   |   |   |   |   |   |   |   |   |   |   |   |   |   |   |   |   |   |   |   |   |   dtcpb > 3875890342: Exploits (2.0/1.0)
|   |   |   |   |   |   |   |   |   |   |   |   |   |   |   |   |   |   |   |   |   |   stcpb > 3761401039: Reconnaissance (2.0/1.0)
|   |   |   |   |   |   |   |   |   |   |   |   |   |   |   |   |   |   |   |   |   smean > 92
|   |   |   |   |   |   |   |   |   |   |   |   |   |   |   |   |   |   |   |   |   |   sbytes <= 1010
|   |   |   |   |   |   |   |   |   |   |   |   |   |   |   |   |   |   |   |   |   |   |   dur <= 0.209324: Reconnaissance (3.0/1.0)
|   |   |   |   |   |   |   |   |   |   |   |   |   |   |   |   |   |   |   |   |   |   |   dur > 0.209324: Exploits (22.0/3.0)
|   |   |   |   |   |   |   |   |   |   |   |   |   |   |   |   |   |   |   |   |   |   sbytes > 1010
|   |   |   |   |   |   |   |   |   |   |   |   |   |   |   |   |   |   |   |   |   |   |   dur <= 0.376926: Shellcode (7.0/2.0)
|   |   |   |   |   |   |   |   |   |   |   |   |   |   |   |   |   |   |   |   |   |   |   dur > 0.376926: Exploits (5.0)
|   |   |   |   |   |   |   |   |   |   |   |   |   |   |   |   |   |   |   |   ct_src_ltm > 3
|   |   |   |   |   |   |   |   |   |   |   |   |   |   |   |   |   |   |   |   |   dinpkt <= 75.828: Exploits (3.0)
|   |   |   |   |   |   |   |   |   |   |   |   |   |   |   |   |   |   |   |   |   dinpkt > 75.828: Reconnaissance (3.0)
|   |   |   |   |   |   |   |   |   |   |   |   |   |   |   |   |   ct_src_dport_ltm > 1
|   |   |   |   |   |   |   |   |   |   |   |   |   |   |   |   |   |   ct_src_ltm <= 2: Reconnaissance (6.0/1.0)
|   |   |   |   |   |   |   |   |   |   |   |   |   |   |   |   |   |   ct_src_ltm > 2: Normal (2.0/1.0)
|   |   |   |   |   |   |   |   |   |   |   |   |   |   |   |   ct_src_ltm > 13: Normal (2.0/1.0)
|   |   |   |   |   |   |   |   |   |   |   |   |   service > 2
|   |   |   |   |   |   |   |   |   |   |   |   |   |   smean <= 85
|   |   |   |   |   |   |   |   |   |   |   |   |   |   |   sttl <= 63: Exploits (2.0)
|   |   |   |   |   |   |   |   |   |   |   |   |   |   |   sttl > 63
|   |   |   |   |   |   |   |   |   |   |   |   |   |   |   |   trans_depth <= 0
|   |   |   |   |   |   |   |   |   |   |   |   |   |   |   |   |   ct_srv_src <= 1
|   |   |   |   |   |   |   |   |   |   |   |   |   |   |   |   |   |   synack <= 0.103532: Reconnaissance (20.0/2.0)
|   |   |   |   |   |   |   |   |   |   |   |   |   |   |   |   |   |   synack > 0.103532: Exploits (2.0)
|   |   |   |   |   |   |   |   |   |   |   |   |   |   |   |   |   ct_srv_src > 1
|   |   |   |   |   |   |   |   |   |   |   |   |   |   |   |   |   |   dur <= 0.356945: Exploits (4.0/1.0)
|   |   |   |   |   |   |   |   |   |   |   |   |   |   |   |   |   |   dur > 0.356945: Reconnaissance (3.0)
|   |   |   |   |   |   |   |   |   |   |   |   |   |   |   |   trans_depth > 0
|   |   |   |   |   |   |   |   |   |   |   |   |   |   |   |   |   ct_dst_ltm <= 5: Reconnaissance (187.0/67.0)
|   |   |   |   |   |   |   |   |   |   |   |   |   |   |   |   |   ct_dst_ltm > 5: Exploits (2.0)
|   |   |   |   |   |   |   |   |   |   |   |   |   |   smean > 85
|   |   |   |   |   |   |   |   |   |   |   |   |   |   |   smean <= 100
|   |   |   |   |   |   |   |   |   |   |   |   |   |   |   |   ct_src_dport_ltm <= 1
|   |   |   |   |   |   |   |   |   |   |   |   |   |   |   |   |   ct_srv_src <= 1
|   |   |   |   |   |   |   |   |   |   |   |   |   |   |   |   |   |   sbytes <= 858: Reconnaissance (9.0/1.0)
|   |   |   |   |   |   |   |   |   |   |   |   |   |   |   |   |   |   sbytes > 858
|   |   |   |   |   |   |   |   |   |   |   |   |   |   |   |   |   |   |   trans_depth <= 0: Exploits (44.0/17.0)
|   |   |   |   |   |   |   |   |   |   |   |   |   |   |   |   |   |   |   trans_depth > 0
|   |   |   |   |   |   |   |   |   |   |   |   |   |   |   |   |   |   |   |   ct_dst_ltm <= 1
|   |   |   |   |   |   |   |   |   |   |   |   |   |   |   |   |   |   |   |   |   ct_src_ltm <= 9
|   |   |   |   |   |   |   |   |   |   |   |   |   |   |   |   |   |   |   |   |   |   dpkts <= 7
|   |   |   |   |   |   |   |   |   |   |   |   |   |   |   |   |   |   |   |   |   |   |   dtcpb <= 3972367359
|   |   |   |   |   |   |   |   |   |   |   |   |   |   |   |   |   |   |   |   |   |   |   |   stcpb <= 4109260470: Exploits (190.0/56.0)
|   |   |   |   |   |   |   |   |   |   |   |   |   |   |   |   |   |   |   |   |   |   |   |   stcpb > 4109260470: Reconnaissance (8.0/2.0)
|   |   |   |   |   |   |   |   |   |   |   |   |   |   |   |   |   |   |   |   |   |   |   dtcpb > 3972367359
|   |   |   |   |   |   |   |   |   |   |   |   |   |   |   |   |   |   |   |   |   |   |   |   ct_src_ltm <= 1
|   |   |   |   |   |   |   |   |   |   |   |   |   |   |   |   |   |   |   |   |   |   |   |   |   dur <= 0.306774: Reconnaissance (11.0/1.0)
|   |   |   |   |   |   |   |   |   |   |   |   |   |   |   |   |   |   |   |   |   |   |   |   |   dur > 0.306774: Exploits (6.0/1.0)
|   |   |   |   |   |   |   |   |   |   |   |   |   |   |   |   |   |   |   |   |   |   |   |   ct_src_ltm > 1: Reconnaissance (2.0)
|   |   |   |   |   |   |   |   |   |   |   |   |   |   |   |   |   |   |   |   |   |   dpkts > 7
|   |   |   |   |   |   |   |   |   |   |   |   |   |   |   |   |   |   |   |   |   |   |   ackdat <= 0.049238
|   |   |   |   |   |   |   |   |   |   |   |   |   |   |   |   |   |   |   |   |   |   |   |   smean <= 95
|   |   |   |   |   |   |   |   |   |   |   |   |   |   |   |   |   |   |   |   |   |   |   |   |   sbytes <= 916: Reconnaissance (5.0/2.0)
|   |   |   |   |   |   |   |   |   |   |   |   |   |   |   |   |   |   |   |   |   |   |   |   |   sbytes > 916: Exploits (5.0)
|   |   |   |   |   |   |   |   |   |   |   |   |   |   |   |   |   |   |   |   |   |   |   |   smean > 95: Reconnaissance (4.0)
|   |   |   |   |   |   |   |   |   |   |   |   |   |   |   |   |   |   |   |   |   |   |   ackdat > 0.049238: Exploits (11.0/1.0)
|   |   |   |   |   |   |   |   |   |   |   |   |   |   |   |   |   |   |   |   |   ct_src_ltm > 9: Reconnaissance (7.0/1.0)
|   |   |   |   |   |   |   |   |   |   |   |   |   |   |   |   |   |   |   |   ct_dst_ltm > 1
|   |   |   |   |   |   |   |   |   |   |   |   |   |   |   |   |   |   |   |   |   dur <= 0.495345: Exploits (11.0/2.0)
|   |   |   |   |   |   |   |   |   |   |   |   |   |   |   |   |   |   |   |   |   dur > 0.495345
|   |   |   |   |   |   |   |   |   |   |   |   |   |   |   |   |   |   |   |   |   |   ackdat <= 0.079776: Reconnaissance (6.0)
|   |   |   |   |   |   |   |   |   |   |   |   |   |   |   |   |   |   |   |   |   |   ackdat > 0.079776: Exploits (2.0)
|   |   |   |   |   |   |   |   |   |   |   |   |   |   |   |   |   ct_srv_src > 1
|   |   |   |   |   |   |   |   |   |   |   |   |   |   |   |   |   |   dpkts <= 7
|   |   |   |   |   |   |   |   |   |   |   |   |   |   |   |   |   |   |   ct_srv_src <= 2
|   |   |   |   |   |   |   |   |   |   |   |   |   |   |   |   |   |   |   |   trans_depth <= 0
|   |   |   |   |   |   |   |   |   |   |   |   |   |   |   |   |   |   |   |   |   stcpb <= 1771815608: Reconnaissance (3.0)
|   |   |   |   |   |   |   |   |   |   |   |   |   |   |   |   |   |   |   |   |   stcpb > 1771815608: Exploits (6.0/2.0)
|   |   |   |   |   |   |   |   |   |   |   |   |   |   |   |   |   |   |   |   trans_depth > 0
|   |   |   |   |   |   |   |   |   |   |   |   |   |   |   |   |   |   |   |   |   sinpkt <= 39.101778
|   |   |   |   |   |   |   |   |   |   |   |   |   |   |   |   |   |   |   |   |   |   ct_src_ltm <= 1
|   |   |   |   |   |   |   |   |   |   |   |   |   |   |   |   |   |   |   |   |   |   |   ackdat <= 0.055018
|   |   |   |   |   |   |   |   |   |   |   |   |   |   |   |   |   |   |   |   |   |   |   |   stcpb <= 568596994: Reconnaissance (4.0)
|   |   |   |   |   |   |   |   |   |   |   |   |   |   |   |   |   |   |   |   |   |   |   |   stcpb > 568596994: Exploits (34.0/12.0)
|   |   |   |   |   |   |   |   |   |   |   |   |   |   |   |   |   |   |   |   |   |   |   ackdat > 0.055018: Reconnaissance (7.0/1.0)
|   |   |   |   |   |   |   |   |   |   |   |   |   |   |   |   |   |   |   |   |   |   ct_src_ltm > 1: Reconnaissance (4.0)
|   |   |   |   |   |   |   |   |   |   |   |   |   |   |   |   |   |   |   |   |   sinpkt > 39.101778: Exploits (9.0/1.0)
|   |   |   |   |   |   |   |   |   |   |   |   |   |   |   |   |   |   |   ct_srv_src > 2: Reconnaissance (5.0/1.0)
|   |   |   |   |   |   |   |   |   |   |   |   |   |   |   |   |   |   dpkts > 7
|   |   |   |   |   |   |   |   |   |   |   |   |   |   |   |   |   |   |   stcpb <= 1412821125: Reconnaissance (2.0)
|   |   |   |   |   |   |   |   |   |   |   |   |   |   |   |   |   |   |   stcpb > 1412821125: Exploits (5.0)
|   |   |   |   |   |   |   |   |   |   |   |   |   |   |   |   ct_src_dport_ltm > 1
|   |   |   |   |   |   |   |   |   |   |   |   |   |   |   |   |   ct_src_dport_ltm <= 2
|   |   |   |   |   |   |   |   |   |   |   |   |   |   |   |   |   |   state <= 16610: Exploits (13.0)
|   |   |   |   |   |   |   |   |   |   |   |   |   |   |   |   |   |   state > 16610
|   |   |   |   |   |   |   |   |   |   |   |   |   |   |   |   |   |   |   dur <= 0.31276: Exploits (3.0)
|   |   |   |   |   |   |   |   |   |   |   |   |   |   |   |   |   |   |   dur > 0.31276: Reconnaissance (3.0)
|   |   |   |   |   |   |   |   |   |   |   |   |   |   |   |   |   ct_src_dport_ltm > 2: Reconnaissance (3.0/1.0)
|   |   |   |   |   |   |   |   |   |   |   |   |   |   |   smean > 100
|   |   |   |   |   |   |   |   |   |   |   |   |   |   |   |   dur <= 0.722809
|   |   |   |   |   |   |   |   |   |   |   |   |   |   |   |   |   trans_depth <= 0
|   |   |   |   |   |   |   |   |   |   |   |   |   |   |   |   |   |   sbytes <= 1010: Exploits (2.0)
|   |   |   |   |   |   |   |   |   |   |   |   |   |   |   |   |   |   sbytes > 1010: Reconnaissance (2.0)
|   |   |   |   |   |   |   |   |   |   |   |   |   |   |   |   |   trans_depth > 0
|   |   |   |   |   |   |   |   |   |   |   |   |   |   |   |   |   |   synack <= 0.089061: Exploits (20.0/1.0)
|   |   |   |   |   |   |   |   |   |   |   |   |   |   |   |   |   |   synack > 0.089061: Reconnaissance (3.0/1.0)
|   |   |   |   |   |   |   |   |   |   |   |   |   |   |   |   dur > 0.722809: Reconnaissance (3.0/1.0)
|   |   |   |   |   |   |   |   |   |   |   sbytes > 1020
|   |   |   |   |   |   |   |   |   |   |   |   state <= 11575
|   |   |   |   |   |   |   |   |   |   |   |   |   service <= 1
|   |   |   |   |   |   |   |   |   |   |   |   |   |   ct_dst_ltm <= 1
|   |   |   |   |   |   |   |   |   |   |   |   |   |   |   smean <= 240
|   |   |   |   |   |   |   |   |   |   |   |   |   |   |   |   tcprtt <= 0.22304
|   |   |   |   |   |   |   |   |   |   |   |   |   |   |   |   |   rate <= 20.83171: Normal (3.0/2.0)
|   |   |   |   |   |   |   |   |   |   |   |   |   |   |   |   |   rate > 20.83171
|   |   |   |   |   |   |   |   |   |   |   |   |   |   |   |   |   |   state <= 8140
|   |   |   |   |   |   |   |   |   |   |   |   |   |   |   |   |   |   |   dtcpb <= 1155062524: Exploits (3.0)
|   |   |   |   |   |   |   |   |   |   |   |   |   |   |   |   |   |   |   dtcpb > 1155062524: Generic (3.0/1.0)
|   |   |   |   |   |   |   |   |   |   |   |   |   |   |   |   |   |   state > 8140: Exploits (22.0/3.0)
|   |   |   |   |   |   |   |   |   |   |   |   |   |   |   |   tcprtt > 0.22304
|   |   |   |   |   |   |   |   |   |   |   |   |   |   |   |   |   sbytes <= 1295: Normal (2.0/1.0)
|   |   |   |   |   |   |   |   |   |   |   |   |   |   |   |   |   sbytes > 1295
|   |   |   |   |   |   |   |   |   |   |   |   |   |   |   |   |   |   sbytes <= 1390: Worms (2.0)
|   |   |   |   |   |   |   |   |   |   |   |   |   |   |   |   |   |   sbytes > 1390: Exploits (2.0)
|   |   |   |   |   |   |   |   |   |   |   |   |   |   |   smean > 240
|   |   |   |   |   |   |   |   |   |   |   |   |   |   |   |   smean <= 252: Normal (29.0/2.0)
|   |   |   |   |   |   |   |   |   |   |   |   |   |   |   |   smean > 252
|   |   |   |   |   |   |   |   |   |   |   |   |   |   |   |   |   ct_srv_src <= 7
|   |   |   |   |   |   |   |   |   |   |   |   |   |   |   |   |   |   dur <= 0.623885
|   |   |   |   |   |   |   |   |   |   |   |   |   |   |   |   |   |   |   djit <= 169.2735: Exploits (10.0/1.0)
|   |   |   |   |   |   |   |   |   |   |   |   |   |   |   |   |   |   |   djit > 169.2735: DoS (2.0/1.0)
|   |   |   |   |   |   |   |   |   |   |   |   |   |   |   |   |   |   dur > 0.623885
|   |   |   |   |   |   |   |   |   |   |   |   |   |   |   |   |   |   |   synack <= 0.084227
|   |   |   |   |   |   |   |   |   |   |   |   |   |   |   |   |   |   |   |   ct_src_ltm <= 1
|   |   |   |   |   |   |   |   |   |   |   |   |   |   |   |   |   |   |   |   |   sjit <= 3192.808866: Normal (2.0)
|   |   |   |   |   |   |   |   |   |   |   |   |   |   |   |   |   |   |   |   |   sjit > 3192.808866: Exploits (4.0)
|   |   |   |   |   |   |   |   |   |   |   |   |   |   |   |   |   |   |   |   ct_src_ltm > 1: Exploits (5.0/1.0)
|   |   |   |   |   |   |   |   |   |   |   |   |   |   |   |   |   |   |   synack > 0.084227
|   |   |   |   |   |   |   |   |   |   |   |   |   |   |   |   |   |   |   |   tcprtt <= 0.14287: Exploits (2.0/1.0)
|   |   |   |   |   |   |   |   |   |   |   |   |   |   |   |   |   |   |   |   tcprtt > 0.14287: Normal (8.0/1.0)
|   |   |   |   |   |   |   |   |   |   |   |   |   |   |   |   |   ct_srv_src > 7: Generic (2.0)
|   |   |   |   |   |   |   |   |   |   |   |   |   |   ct_dst_ltm > 1: DoS (2.0)
|   |   |   |   |   |   |   |   |   |   |   |   |   service > 1
|   |   |   |   |   |   |   |   |   |   |   |   |   |   ct_src_ltm <= 3: Exploits (75.0/18.0)
|   |   |   |   |   |   |   |   |   |   |   |   |   |   ct_src_ltm > 3
|   |   |   |   |   |   |   |   |   |   |   |   |   |   |   dur <= 0.683593: Exploits (2.0/1.0)
|   |   |   |   |   |   |   |   |   |   |   |   |   |   |   dur > 0.683593: DoS (4.0/1.0)
|   |   |   |   |   |   |   |   |   |   |   |   state > 11575
|   |   |   |   |   |   |   |   |   |   |   |   |   ct_src_ltm <= 9
|   |   |   |   |   |   |   |   |   |   |   |   |   |   smean <= 137
|   |   |   |   |   |   |   |   |   |   |   |   |   |   |   smean <= 128: Exploits (179.0/20.0)
|   |   |   |   |   |   |   |   |   |   |   |   |   |   |   smean > 128
|   |   |   |   |   |   |   |   |   |   |   |   |   |   |   |   sbytes <= 1296: Worms (6.0/1.0)
|   |   |   |   |   |   |   |   |   |   |   |   |   |   |   |   sbytes > 1296
|   |   |   |   |   |   |   |   |   |   |   |   |   |   |   |   |   ct_srv_src <= 1: Exploits (9.0/1.0)
|   |   |   |   |   |   |   |   |   |   |   |   |   |   |   |   |   ct_srv_src > 1
|   |   |   |   |   |   |   |   |   |   |   |   |   |   |   |   |   |   ct_srv_src <= 2: Shellcode (2.0)
|   |   |   |   |   |   |   |   |   |   |   |   |   |   |   |   |   |   ct_srv_src > 2: Exploits (3.0/1.0)
|   |   |   |   |   |   |   |   |   |   |   |   |   |   smean > 137
|   |   |   |   |   |   |   |   |   |   |   |   |   |   |   ct_srv_src <= 4
|   |   |   |   |   |   |   |   |   |   |   |   |   |   |   |   trans_depth <= 0
|   |   |   |   |   |   |   |   |   |   |   |   |   |   |   |   |   sttl <= 63
|   |   |   |   |   |   |   |   |   |   |   |   |   |   |   |   |   |   spkts <= 11: DoS (2.0)
|   |   |   |   |   |   |   |   |   |   |   |   |   |   |   |   |   |   spkts > 11: Exploits (3.0)
|   |   |   |   |   |   |   |   |   |   |   |   |   |   |   |   |   sttl > 63
|   |   |   |   |   |   |   |   |   |   |   |   |   |   |   |   |   |   rate <= 82.310931
|   |   |   |   |   |   |   |   |   |   |   |   |   |   |   |   |   |   |   rate <= 43.571351
|   |   |   |   |   |   |   |   |   |   |   |   |   |   |   |   |   |   |   |   sloss <= 3
|   |   |   |   |   |   |   |   |   |   |   |   |   |   |   |   |   |   |   |   |   djit <= 91.211633
|   |   |   |   |   |   |   |   |   |   |   |   |   |   |   |   |   |   |   |   |   |   sinpkt <= 39.269386: Shellcode (2.0)
|   |   |   |   |   |   |   |   |   |   |   |   |   |   |   |   |   |   |   |   |   |   sinpkt > 39.269386: DoS (2.0/1.0)
|   |   |   |   |   |   |   |   |   |   |   |   |   |   |   |   |   |   |   |   |   djit > 91.211633
|   |   |   |   |   |   |   |   |   |   |   |   |   |   |   |   |   |   |   |   |   |   synack <= 0.077703
|   |   |   |   |   |   |   |   |   |   |   |   |   |   |   |   |   |   |   |   |   |   |   ct_srv_src <= 1: Exploits (27.0/3.0)
|   |   |   |   |   |   |   |   |   |   |   |   |   |   |   |   |   |   |   |   |   |   |   ct_srv_src > 1
|   |   |   |   |   |   |   |   |   |   |   |   |   |   |   |   |   |   |   |   |   |   |   |   dtcpb <= 3020161110: Exploits (4.0/1.0)
|   |   |   |   |   |   |   |   |   |   |   |   |   |   |   |   |   |   |   |   |   |   |   |   dtcpb > 3020161110: DoS (3.0/1.0)
|   |   |   |   |   |   |   |   |   |   |   |   |   |   |   |   |   |   |   |   |   |   synack > 0.077703: DoS (3.0/1.0)
|   |   |   |   |   |   |   |   |   |   |   |   |   |   |   |   |   |   |   |   sloss > 3: DoS (2.0)
|   |   |   |   |   |   |   |   |   |   |   |   |   |   |   |   |   |   |   rate > 43.571351: Exploits (78.0/6.0)
|   |   |   |   |   |   |   |   |   |   |   |   |   |   |   |   |   |   rate > 82.310931
|   |   |   |   |   |   |   |   |   |   |   |   |   |   |   |   |   |   |   djit <= 49.089379
|   |   |   |   |   |   |   |   |   |   |   |   |   |   |   |   |   |   |   |   spkts <= 15
|   |   |   |   |   |   |   |   |   |   |   |   |   |   |   |   |   |   |   |   |   sinpkt <= 11.98: Exploits (4.0)
|   |   |   |   |   |   |   |   |   |   |   |   |   |   |   |   |   |   |   |   |   sinpkt > 11.98: Generic (2.0)
|   |   |   |   |   |   |   |   |   |   |   |   |   |   |   |   |   |   |   |   spkts > 15
|   |   |   |   |   |   |   |   |   |   |   |   |   |   |   |   |   |   |   |   |   dinpkt <= 28.4616: DoS (3.0/1.0)
|   |   |   |   |   |   |   |   |   |   |   |   |   |   |   |   |   |   |   |   |   dinpkt > 28.4616: Generic (2.0)
|   |   |   |   |   |   |   |   |   |   |   |   |   |   |   |   |   |   |   djit > 49.089379
|   |   |   |   |   |   |   |   |   |   |   |   |   |   |   |   |   |   |   |   ackdat <= 0.048111
|   |   |   |   |   |   |   |   |   |   |   |   |   |   |   |   |   |   |   |   |   ct_srv_src <= 1
|   |   |   |   |   |   |   |   |   |   |   |   |   |   |   |   |   |   |   |   |   |   ackdat <= 0.04727: Exploits (14.0/4.0)
|   |   |   |   |   |   |   |   |   |   |   |   |   |   |   |   |   |   |   |   |   |   ackdat > 0.04727: DoS (2.0)
|   |   |   |   |   |   |   |   |   |   |   |   |   |   |   |   |   |   |   |   |   ct_srv_src > 1
|   |   |   |   |   |   |   |   |   |   |   |   |   |   |   |   |   |   |   |   |   |   dur <= 0.16506: Exploits (2.0)
|   |   |   |   |   |   |   |   |   |   |   |   |   |   |   |   |   |   |   |   |   |   dur > 0.16506: DoS (7.0)
|   |   |   |   |   |   |   |   |   |   |   |   |   |   |   |   |   |   |   |   ackdat > 0.048111: Exploits (7.0)
|   |   |   |   |   |   |   |   |   |   |   |   |   |   |   |   trans_depth > 0
|   |   |   |   |   |   |   |   |   |   |   |   |   |   |   |   |   synack <= 0.078557
|   |   |   |   |   |   |   |   |   |   |   |   |   |   |   |   |   |   smean <= 204
|   |   |   |   |   |   |   |   |   |   |   |   |   |   |   |   |   |   |   smean <= 187: Exploits (41.0/4.0)
|   |   |   |   |   |   |   |   |   |   |   |   |   |   |   |   |   |   |   smean > 187
|   |   |   |   |   |   |   |   |   |   |   |   |   |   |   |   |   |   |   |   synack <= 0.006773: Exploits (2.0)
|   |   |   |   |   |   |   |   |   |   |   |   |   |   |   |   |   |   |   |   synack > 0.006773: DoS (9.0/1.0)
|   |   |   |   |   |   |   |   |   |   |   |   |   |   |   |   |   |   smean > 204
|   |   |   |   |   |   |   |   |   |   |   |   |   |   |   |   |   |   |   dur <= 0.153501: DoS (4.0/1.0)
|   |   |   |   |   |   |   |   |   |   |   |   |   |   |   |   |   |   |   dur > 0.153501: Exploits (75.0/6.0)
|   |   |   |   |   |   |   |   |   |   |   |   |   |   |   |   |   synack > 0.078557: DoS (7.0/2.0)
|   |   |   |   |   |   |   |   |   |   |   |   |   |   |   ct_srv_src > 4: Exploits (24.0/1.0)
|   |   |   |   |   |   |   |   |   |   |   |   |   ct_src_ltm > 9
|   |   |   |   |   |   |   |   |   |   |   |   |   |   dtcpb <= 1597928340: Normal (3.0)
|   |   |   |   |   |   |   |   |   |   |   |   |   |   dtcpb > 1597928340
|   |   |   |   |   |   |   |   |   |   |   |   |   |   |   sbytes <= 2198: Exploits (2.0)
|   |   |   |   |   |   |   |   |   |   |   |   |   |   |   sbytes > 2198: DoS (3.0/1.0)
|   |   |   |   |   |   |   |   |   |   dbytes > 354
|   |   |   |   |   |   |   |   |   |   |   sload <= 10612.52441
|   |   |   |   |   |   |   |   |   |   |   |   dloss <= 2
|   |   |   |   |   |   |   |   |   |   |   |   |   sbytes <= 790
|   |   |   |   |   |   |   |   |   |   |   |   |   |   service <= 2: Exploits (7.0/1.0)
|   |   |   |   |   |   |   |   |   |   |   |   |   |   service > 2
|   |   |   |   |   |   |   |   |   |   |   |   |   |   |   dbytes <= 1298: DoS (17.0/5.0)
|   |   |   |   |   |   |   |   |   |   |   |   |   |   |   dbytes > 1298: Exploits (3.0)
|   |   |   |   |   |   |   |   |   |   |   |   |   sbytes > 790
|   |   |   |   |   |   |   |   |   |   |   |   |   |   dbytes <= 1408
|   |   |   |   |   |   |   |   |   |   |   |   |   |   |   dbytes <= 686: Exploits (5.0/1.0)
|   |   |   |   |   |   |   |   |   |   |   |   |   |   |   dbytes > 686
|   |   |   |   |   |   |   |   |   |   |   |   |   |   |   |   spkts <= 11
|   |   |   |   |   |   |   |   |   |   |   |   |   |   |   |   |   response_body_len <= 121
|   |   |   |   |   |   |   |   |   |   |   |   |   |   |   |   |   |   dbytes <= 1058: DoS (8.0/1.0)
|   |   |   |   |   |   |   |   |   |   |   |   |   |   |   |   |   |   dbytes > 1058
|   |   |   |   |   |   |   |   |   |   |   |   |   |   |   |   |   |   |   stcpb <= 1017628140: Exploits (4.0)
|   |   |   |   |   |   |   |   |   |   |   |   |   |   |   |   |   |   |   stcpb > 1017628140
|   |   |   |   |   |   |   |   |   |   |   |   |   |   |   |   |   |   |   |   stcpb <= 2484284945: DoS (4.0/1.0)
|   |   |   |   |   |   |   |   |   |   |   |   |   |   |   |   |   |   |   |   stcpb > 2484284945: Exploits (6.0)
|   |   |   |   |   |   |   |   |   |   |   |   |   |   |   |   |   response_body_len > 121
|   |   |   |   |   |   |   |   |   |   |   |   |   |   |   |   |   |   dbytes <= 1122: Normal (15.0)
|   |   |   |   |   |   |   |   |   |   |   |   |   |   |   |   |   |   dbytes > 1122
|   |   |   |   |   |   |   |   |   |   |   |   |   |   |   |   |   |   |   ct_src_dport_ltm <= 1
|   |   |   |   |   |   |   |   |   |   |   |   |   |   |   |   |   |   |   |   ct_dst_ltm <= 2
|   |   |   |   |   |   |   |   |   |   |   |   |   |   |   |   |   |   |   |   |   ct_dst_ltm <= 1
|   |   |   |   |   |   |   |   |   |   |   |   |   |   |   |   |   |   |   |   |   |   stcpb <= 610679747: DoS (4.0/1.0)
|   |   |   |   |   |   |   |   |   |   |   |   |   |   |   |   |   |   |   |   |   |   stcpb > 610679747
|   |   |   |   |   |   |   |   |   |   |   |   |   |   |   |   |   |   |   |   |   |   |   dpkts <= 9
|   |   |   |   |   |   |   |   |   |   |   |   |   |   |   |   |   |   |   |   |   |   |   |   tcprtt <= 0.131037: Exploits (13.0/2.0)
|   |   |   |   |   |   |   |   |   |   |   |   |   |   |   |   |   |   |   |   |   |   |   |   tcprtt > 0.131037
|   |   |   |   |   |   |   |   |   |   |   |   |   |   |   |   |   |   |   |   |   |   |   |   |   stcpb <= 2941359264
|   |   |   |   |   |   |   |   |   |   |   |   |   |   |   |   |   |   |   |   |   |   |   |   |   |   synack <= 0.072995: Normal (4.0)
|   |   |   |   |   |   |   |   |   |   |   |   |   |   |   |   |   |   |   |   |   |   |   |   |   |   synack > 0.072995: DoS (3.0/1.0)
|   |   |   |   |   |   |   |   |   |   |   |   |   |   |   |   |   |   |   |   |   |   |   |   |   stcpb > 2941359264
|   |   |   |   |   |   |   |   |   |   |   |   |   |   |   |   |   |   |   |   |   |   |   |   |   |   state <= 22151: Exploits (3.0)
|   |   |   |   |   |   |   |   |   |   |   |   |   |   |   |   |   |   |   |   |   |   |   |   |   |   state > 22151
|   |   |   |   |   |   |   |   |   |   |   |   |   |   |   |   |   |   |   |   |   |   |   |   |   |   |   state <= 22723: Normal (4.0)
|   |   |   |   |   |   |   |   |   |   |   |   |   |   |   |   |   |   |   |   |   |   |   |   |   |   |   state > 22723: Exploits (4.0/1.0)
|   |   |   |   |   |   |   |   |   |   |   |   |   |   |   |   |   |   |   |   |   |   |   dpkts > 9
|   |   |   |   |   |   |   |   |   |   |   |   |   |   |   |   |   |   |   |   |   |   |   |   ackdat <= 0.056722: Normal (7.0)
|   |   |   |   |   |   |   |   |   |   |   |   |   |   |   |   |   |   |   |   |   |   |   |   ackdat > 0.056722: DoS (2.0/1.0)
|   |   |   |   |   |   |   |   |   |   |   |   |   |   |   |   |   |   |   |   |   ct_dst_ltm > 1: Exploits (2.0)
|   |   |   |   |   |   |   |   |   |   |   |   |   |   |   |   |   |   |   |   ct_dst_ltm > 2
|   |   |   |   |   |   |   |   |   |   |   |   |   |   |   |   |   |   |   |   |   sbytes <= 832: Normal (3.0)
|   |   |   |   |   |   |   |   |   |   |   |   |   |   |   |   |   |   |   |   |   sbytes > 832: DoS (2.0)
|   |   |   |   |   |   |   |   |   |   |   |   |   |   |   |   |   |   |   ct_src_dport_ltm > 1: Normal (6.0/1.0)
|   |   |   |   |   |   |   |   |   |   |   |   |   |   |   |   spkts > 11: Normal (4.0)
|   |   |   |   |   |   |   |   |   |   |   |   |   |   dbytes > 1408: Exploits (8.0/1.0)
|   |   |   |   |   |   |   |   |   |   |   |   dloss > 2
|   |   |   |   |   |   |   |   |   |   |   |   |   dbytes <= 704
|   |   |   |   |   |   |   |   |   |   |   |   |   |   dmean <= 53: Exploits (3.0)
|   |   |   |   |   |   |   |   |   |   |   |   |   |   dmean > 53: Normal (29.0/3.0)
|   |   |   |   |   |   |   |   |   |   |   |   |   dbytes > 704: DoS (5.0/1.0)
|   |   |   |   |   |   |   |   |   |   |   sload > 10612.52441
|   |   |   |   |   |   |   |   |   |   |   |   sttl <= 63
|   |   |   |   |   |   |   |   |   |   |   |   |   dinpkt <= 71.330844
|   |   |   |   |   |   |   |   |   |   |   |   |   |   dloss <= 2
|   |   |   |   |   |   |   |   |   |   |   |   |   |   |   dbytes <= 1032
|   |   |   |   |   |   |   |   |   |   |   |   |   |   |   |   spkts <= 9: Exploits (2.0)
|   |   |   |   |   |   |   |   |   |   |   |   |   |   |   |   spkts > 9
|   |   |   |   |   |   |   |   |   |   |   |   |   |   |   |   |   ct_dst_ltm <= 1
|   |   |   |   |   |   |   |   |   |   |   |   |   |   |   |   |   |   service <= 2
|   |   |   |   |   |   |   |   |   |   |   |   |   |   |   |   |   |   |   state <= 24262: DoS (3.0)
|   |   |   |   |   |   |   |   |   |   |   |   |   |   |   |   |   |   |   state > 24262: Exploits (8.0/1.0)
|   |   |   |   |   |   |   |   |   |   |   |   |   |   |   |   |   |   service > 2
|   |   |   |   |   |   |   |   |   |   |   |   |   |   |   |   |   |   |   tcprtt <= 0.049759: DoS (11.0)
|   |   |   |   |   |   |   |   |   |   |   |   |   |   |   |   |   |   |   tcprtt > 0.049759
|   |   |   |   |   |   |   |   |   |   |   |   |   |   |   |   |   |   |   |   service <= 8
|   |   |   |   |   |   |   |   |   |   |   |   |   |   |   |   |   |   |   |   |   smean <= 79: DoS (18.0/4.0)
|   |   |   |   |   |   |   |   |   |   |   |   |   |   |   |   |   |   |   |   |   smean > 79
|   |   |   |   |   |   |   |   |   |   |   |   |   |   |   |   |   |   |   |   |   |   trans_depth <= 0: Exploits (2.0)
|   |   |   |   |   |   |   |   |   |   |   |   |   |   |   |   |   |   |   |   |   |   trans_depth > 0
|   |   |   |   |   |   |   |   |   |   |   |   |   |   |   |   |   |   |   |   |   |   |   ct_src_ltm <= 1
|   |   |   |   |   |   |   |   |   |   |   |   |   |   |   |   |   |   |   |   |   |   |   |   dtcpb <= 1868943878: Exploits (4.0/1.0)
|   |   |   |   |   |   |   |   |   |   |   |   |   |   |   |   |   |   |   |   |   |   |   |   dtcpb > 1868943878: DoS (5.0)
|   |   |   |   |   |   |   |   |   |   |   |   |   |   |   |   |   |   |   |   |   |   |   ct_src_ltm > 1: Exploits (6.0/1.0)
|   |   |   |   |   |   |   |   |   |   |   |   |   |   |   |   |   |   |   |   service > 8: DoS (2.0/1.0)
|   |   |   |   |   |   |   |   |   |   |   |   |   |   |   |   |   ct_dst_ltm > 1: DoS (2.0)
|   |   |   |   |   |   |   |   |   |   |   |   |   |   |   dbytes > 1032
|   |   |   |   |   |   |   |   |   |   |   |   |   |   |   |   smean <= 110
|   |   |   |   |   |   |   |   |   |   |   |   |   |   |   |   |   dbytes <= 1074
|   |   |   |   |   |   |   |   |   |   |   |   |   |   |   |   |   |   response_body_len <= 95: Exploits (5.0)
|   |   |   |   |   |   |   |   |   |   |   |   |   |   |   |   |   |   response_body_len > 95
|   |   |   |   |   |   |   |   |   |   |   |   |   |   |   |   |   |   |   tcprtt <= 0.057146: DoS (6.0)
|   |   |   |   |   |   |   |   |   |   |   |   |   |   |   |   |   |   |   tcprtt > 0.057146
|   |   |   |   |   |   |   |   |   |   |   |   |   |   |   |   |   |   |   |   djit <= 45.994695: Backdoor (2.0)
|   |   |   |   |   |   |   |   |   |   |   |   |   |   |   |   |   |   |   |   djit > 45.994695: Normal (4.0/1.0)
|   |   |   |   |   |   |   |   |   |   |   |   |   |   |   |   |   dbytes > 1074
|   |   |   |   |   |   |   |   |   |   |   |   |   |   |   |   |   |   state <= 24646
|   |   |   |   |   |   |   |   |   |   |   |   |   |   |   |   |   |   |   dtcpb <= 749442943: Exploits (13.0)
|   |   |   |   |   |   |   |   |   |   |   |   |   |   |   |   |   |   |   dtcpb > 749442943
|   |   |   |   |   |   |   |   |   |   |   |   |   |   |   |   |   |   |   |   trans_depth <= 0
|   |   |   |   |   |   |   |   |   |   |   |   |   |   |   |   |   |   |   |   |   dur <= 0.511796
|   |   |   |   |   |   |   |   |   |   |   |   |   |   |   |   |   |   |   |   |   |   ct_srv_src <= 1: Exploits (6.0)
|   |   |   |   |   |   |   |   |   |   |   |   |   |   |   |   |   |   |   |   |   |   ct_srv_src > 1
|   |   |   |   |   |   |   |   |   |   |   |   |   |   |   |   |   |   |   |   |   |   |   synack <= 0.062395: DoS (3.0)
|   |   |   |   |   |   |   |   |   |   |   |   |   |   |   |   |   |   |   |   |   |   |   synack > 0.062395: Exploits (3.0)
|   |   |   |   |   |   |   |   |   |   |   |   |   |   |   |   |   |   |   |   |   dur > 0.511796: DoS (4.0/1.0)
|   |   |   |   |   |   |   |   |   |   |   |   |   |   |   |   |   |   |   |   trans_depth > 0
|   |   |   |   |   |   |   |   |   |   |   |   |   |   |   |   |   |   |   |   |   dpkts <= 9
|   |   |   |   |   |   |   |   |   |   |   |   |   |   |   |   |   |   |   |   |   |   smean <= 83
|   |   |   |   |   |   |   |   |   |   |   |   |   |   |   |   |   |   |   |   |   |   |   ct_srv_src <= 1
|   |   |   |   |   |   |   |   |   |   |   |   |   |   |   |   |   |   |   |   |   |   |   |   stcpb <= 3089841769
|   |   |   |   |   |   |   |   |   |   |   |   |   |   |   |   |   |   |   |   |   |   |   |   |   dmean <= 149: Exploits (5.0)
|   |   |   |   |   |   |   |   |   |   |   |   |   |   |   |   |   |   |   |   |   |   |   |   |   dmean > 149
|   |   |   |   |   |   |   |   |   |   |   |   |   |   |   |   |   |   |   |   |   |   |   |   |   |   dur <= 0.485173: Normal (4.0/1.0)
|   |   |   |   |   |   |   |   |   |   |   |   |   |   |   |   |   |   |   |   |   |   |   |   |   |   dur > 0.485173: Exploits (3.0)
|   |   |   |   |   |   |   |   |   |   |   |   |   |   |   |   |   |   |   |   |   |   |   |   stcpb > 3089841769: Normal (4.0/1.0)
|   |   |   |   |   |   |   |   |   |   |   |   |   |   |   |   |   |   |   |   |   |   |   ct_srv_src > 1: Exploits (2.0)
|   |   |   |   |   |   |   |   |   |   |   |   |   |   |   |   |   |   |   |   |   |   smean > 83
|   |   |   |   |   |   |   |   |   |   |   |   |   |   |   |   |   |   |   |   |   |   |   ackdat <= 0.073895: DoS (5.0)
|   |   |   |   |   |   |   |   |   |   |   |   |   |   |   |   |   |   |   |   |   |   |   ackdat > 0.073895: Normal (2.0)
|   |   |   |   |   |   |   |   |   |   |   |   |   |   |   |   |   |   |   |   |   dpkts > 9
|   |   |   |   |   |   |   |   |   |   |   |   |   |   |   |   |   |   |   |   |   |   tcprtt <= 0.09787: Exploits (4.0)
|   |   |   |   |   |   |   |   |   |   |   |   |   |   |   |   |   |   |   |   |   |   tcprtt > 0.09787: DoS (3.0)
|   |   |   |   |   |   |   |   |   |   |   |   |   |   |   |   |   |   state > 24646
|   |   |   |   |   |   |   |   |   |   |   |   |   |   |   |   |   |   |   spkts <= 9: DoS (2.0)
|   |   |   |   |   |   |   |   |   |   |   |   |   |   |   |   |   |   |   spkts > 9
|   |   |   |   |   |   |   |   |   |   |   |   |   |   |   |   |   |   |   |   service <= 2
|   |   |   |   |   |   |   |   |   |   |   |   |   |   |   |   |   |   |   |   |   sload <= 23376.74805
|   |   |   |   |   |   |   |   |   |   |   |   |   |   |   |   |   |   |   |   |   |   ct_src_ltm <= 2: Exploits (11.0/1.0)
|   |   |   |   |   |   |   |   |   |   |   |   |   |   |   |   |   |   |   |   |   |   ct_src_ltm > 2
|   |   |   |   |   |   |   |   |   |   |   |   |   |   |   |   |   |   |   |   |   |   |   dur <= 0.318058: Exploits (2.0)
|   |   |   |   |   |   |   |   |   |   |   |   |   |   |   |   |   |   |   |   |   |   |   dur > 0.318058: DoS (2.0)
|   |   |   |   |   |   |   |   |   |   |   |   |   |   |   |   |   |   |   |   |   sload > 23376.74805: DoS (3.0)
|   |   |   |   |   |   |   |   |   |   |   |   |   |   |   |   |   |   |   |   service > 2
|   |   |   |   |   |   |   |   |   |   |   |   |   |   |   |   |   |   |   |   |   response_body_len <= 178: Exploits (29.0/3.0)
|   |   |   |   |   |   |   |   |   |   |   |   |   |   |   |   |   |   |   |   |   response_body_len > 178
|   |   |   |   |   |   |   |   |   |   |   |   |   |   |   |   |   |   |   |   |   |   response_body_len <= 210
|   |   |   |   |   |   |   |   |   |   |   |   |   |   |   |   |   |   |   |   |   |   |   djit <= 53.567359: DoS (8.0)
|   |   |   |   |   |   |   |   |   |   |   |   |   |   |   |   |   |   |   |   |   |   |   djit > 53.567359
|   |   |   |   |   |   |   |   |   |   |   |   |   |   |   |   |   |   |   |   |   |   |   |   state <= 24876: DoS (3.0)
|   |   |   |   |   |   |   |   |   |   |   |   |   |   |   |   |   |   |   |   |   |   |   |   state > 24876: Exploits (9.0/2.0)
|   |   |   |   |   |   |   |   |   |   |   |   |   |   |   |   |   |   |   |   |   |   response_body_len > 210
|   |   |   |   |   |   |   |   |   |   |   |   |   |   |   |   |   |   |   |   |   |   |   ct_srv_src <= 1
|   |   |   |   |   |   |   |   |   |   |   |   |   |   |   |   |   |   |   |   |   |   |   |   sbytes <= 766: DoS (4.0/1.0)
|   |   |   |   |   |   |   |   |   |   |   |   |   |   |   |   |   |   |   |   |   |   |   |   sbytes > 766: Exploits (66.0/14.0)
|   |   |   |   |   |   |   |   |   |   |   |   |   |   |   |   |   |   |   |   |   |   |   ct_srv_src > 1
|   |   |   |   |   |   |   |   |   |   |   |   |   |   |   |   |   |   |   |   |   |   |   |   smean <= 84: Exploits (15.0)
|   |   |   |   |   |   |   |   |   |   |   |   |   |   |   |   |   |   |   |   |   |   |   |   smean > 84: DoS (2.0)
|   |   |   |   |   |   |   |   |   |   |   |   |   |   |   |   smean > 110
|   |   |   |   |   |   |   |   |   |   |   |   |   |   |   |   |   dur <= 0.236016: Exploits (2.0)
|   |   |   |   |   |   |   |   |   |   |   |   |   |   |   |   |   dur > 0.236016: Generic (2.0)
|   |   |   |   |   |   |   |   |   |   |   |   |   |   dloss > 2
|   |   |   |   |   |   |   |   |   |   |   |   |   |   |   trans_depth <= 0: Exploits (4.0/1.0)
|   |   |   |   |   |   |   |   |   |   |   |   |   |   |   trans_depth > 0: Backdoor (2.0)
|   |   |   |   |   |   |   |   |   |   |   |   |   dinpkt > 71.330844
|   |   |   |   |   |   |   |   |   |   |   |   |   |   spkts <= 11: Generic (5.0/1.0)
|   |   |   |   |   |   |   |   |   |   |   |   |   |   spkts > 11: Normal (2.0/1.0)
|   |   |   |   |   |   |   |   |   |   |   |   sttl > 63
|   |   |   |   |   |   |   |   |   |   |   |   |   dinpkt <= 46.105242
|   |   |   |   |   |   |   |   |   |   |   |   |   |   dmean <= 165: Exploits (171.0/32.0)
|   |   |   |   |   |   |   |   |   |   |   |   |   |   dmean > 165: DoS (3.0)
|   |   |   |   |   |   |   |   |   |   |   |   |   dinpkt > 46.105242
|   |   |   |   |   |   |   |   |   |   |   |   |   |   ct_src_dport_ltm <= 1
|   |   |   |   |   |   |   |   |   |   |   |   |   |   |   spkts <= 58
|   |   |   |   |   |   |   |   |   |   |   |   |   |   |   |   ct_src_ltm <= 22
|   |   |   |   |   |   |   |   |   |   |   |   |   |   |   |   |   ct_srv_src <= 2
|   |   |   |   |   |   |   |   |   |   |   |   |   |   |   |   |   |   synack <= 0.07246
|   |   |   |   |   |   |   |   |   |   |   |   |   |   |   |   |   |   |   ct_src_ltm <= 12
|   |   |   |   |   |   |   |   |   |   |   |   |   |   |   |   |   |   |   |   ct_srv_src <= 1
|   |   |   |   |   |   |   |   |   |   |   |   |   |   |   |   |   |   |   |   |   response_body_len <= 223
|   |   |   |   |   |   |   |   |   |   |   |   |   |   |   |   |   |   |   |   |   |   dmean <= 58
|   |   |   |   |   |   |   |   |   |   |   |   |   |   |   |   |   |   |   |   |   |   |   synack <= 0.02904: Generic (6.0/1.0)
|   |   |   |   |   |   |   |   |   |   |   |   |   |   |   |   |   |   |   |   |   |   |   synack > 0.02904
|   |   |   |   |   |   |   |   |   |   |   |   |   |   |   |   |   |   |   |   |   |   |   |   stcpb <= 2004794551: DoS (9.0/2.0)
|   |   |   |   |   |   |   |   |   |   |   |   |   |   |   |   |   |   |   |   |   |   |   |   stcpb > 2004794551: Exploits (15.0/4.0)
|   |   |   |   |   |   |   |   |   |   |   |   |   |   |   |   |   |   |   |   |   |   dmean > 58: Exploits (42.0/6.0)
|   |   |   |   |   |   |   |   |   |   |   |   |   |   |   |   |   |   |   |   |   response_body_len > 223: DoS (2.0)
|   |   |   |   |   |   |   |   |   |   |   |   |   |   |   |   |   |   |   |   ct_srv_src > 1
|   |   |   |   |   |   |   |   |   |   |   |   |   |   |   |   |   |   |   |   |   dur <= 0.351625: Normal (2.0/1.0)
|   |   |   |   |   |   |   |   |   |   |   |   |   |   |   |   |   |   |   |   |   dur > 0.351625
|   |   |   |   |   |   |   |   |   |   |   |   |   |   |   |   |   |   |   |   |   |   sbytes <= 1170: DoS (4.0)
|   |   |   |   |   |   |   |   |   |   |   |   |   |   |   |   |   |   |   |   |   |   sbytes > 1170: Exploits (11.0/1.0)
|   |   |   |   |   |   |   |   |   |   |   |   |   |   |   |   |   |   |   ct_src_ltm > 12: DoS (2.0)
|   |   |   |   |   |   |   |   |   |   |   |   |   |   |   |   |   |   synack > 0.07246
|   |   |   |   |   |   |   |   |   |   |   |   |   |   |   |   |   |   |   stcpb <= 3470355260
|   |   |   |   |   |   |   |   |   |   |   |   |   |   |   |   |   |   |   |   response_body_len <= 49
|   |   |   |   |   |   |   |   |   |   |   |   |   |   |   |   |   |   |   |   |   synack <= 0.100462
|   |   |   |   |   |   |   |   |   |   |   |   |   |   |   |   |   |   |   |   |   |   djit <= 84.711812: Normal (2.0)
|   |   |   |   |   |   |   |   |   |   |   |   |   |   |   |   |   |   |   |   |   |   djit > 84.711812
|   |   |   |   |   |   |   |   |   |   |   |   |   |   |   |   |   |   |   |   |   |   |   dpkts <= 9: Generic (5.0)
|   |   |   |   |   |   |   |   |   |   |   |   |   |   |   |   |   |   |   |   |   |   |   dpkts > 9
|   |   |   |   |   |   |   |   |   |   |   |   |   |   |   |   |   |   |   |   |   |   |   |   sbytes <= 1280: Generic (2.0)
|   |   |   |   |   |   |   |   |   |   |   |   |   |   |   |   |   |   |   |   |   |   |   |   sbytes > 1280: Exploits (2.0)
|   |   |   |   |   |   |   |   |   |   |   |   |   |   |   |   |   |   |   |   |   synack > 0.100462: Exploits (5.0)
|   |   |   |   |   |   |   |   |   |   |   |   |   |   |   |   |   |   |   |   response_body_len > 49: Exploits (4.0)
|   |   |   |   |   |   |   |   |   |   |   |   |   |   |   |   |   |   |   stcpb > 3470355260: Normal (4.0/1.0)
|   |   |   |   |   |   |   |   |   |   |   |   |   |   |   |   |   ct_srv_src > 2
|   |   |   |   |   |   |   |   |   |   |   |   |   |   |   |   |   |   ct_src_ltm <= 2
|   |   |   |   |   |   |   |   |   |   |   |   |   |   |   |   |   |   |   sbytes <= 1310: Fuzzers (2.0)
|   |   |   |   |   |   |   |   |   |   |   |   |   |   |   |   |   |   |   sbytes > 1310
|   |   |   |   |   |   |   |   |   |   |   |   |   |   |   |   |   |   |   |   ct_src_ltm <= 1: Exploits (5.0/1.0)
|   |   |   |   |   |   |   |   |   |   |   |   |   |   |   |   |   |   |   |   ct_src_ltm > 1: Generic (4.0/1.0)
|   |   |   |   |   |   |   |   |   |   |   |   |   |   |   |   |   |   ct_src_ltm > 2: Exploits (7.0)
|   |   |   |   |   |   |   |   |   |   |   |   |   |   |   |   ct_src_ltm > 22: Normal (2.0)
|   |   |   |   |   |   |   |   |   |   |   |   |   |   |   spkts > 58
|   |   |   |   |   |   |   |   |   |   |   |   |   |   |   |   dur <= 0.65097: Fuzzers (2.0)
|   |   |   |   |   |   |   |   |   |   |   |   |   |   |   |   dur > 0.65097: Normal (4.0/1.0)
|   |   |   |   |   |   |   |   |   |   |   |   |   |   ct_src_dport_ltm > 1: Normal (2.0/1.0)
|   |   |   |   |   |   |   |   dur > 0.820022
|   |   |   |   |   |   |   |   |   service <= 4
|   |   |   |   |   |   |   |   |   |   proto <= 114
|   |   |   |   |   |   |   |   |   |   |   dmean <= 71
|   |   |   |   |   |   |   |   |   |   |   |   dmean <= 57
|   |   |   |   |   |   |   |   |   |   |   |   |   service <= 2
|   |   |   |   |   |   |   |   |   |   |   |   |   |   ct_state_ttl <= 2
|   |   |   |   |   |   |   |   |   |   |   |   |   |   |   sbytes <= 784
|   |   |   |   |   |   |   |   |   |   |   |   |   |   |   |   service <= 1
|   |   |   |   |   |   |   |   |   |   |   |   |   |   |   |   |   spkts <= 11
|   |   |   |   |   |   |   |   |   |   |   |   |   |   |   |   |   |   ct_src_ltm <= 4
|   |   |   |   |   |   |   |   |   |   |   |   |   |   |   |   |   |   |   dpkts <= 7: Normal (22.0/1.0)
|   |   |   |   |   |   |   |   |   |   |   |   |   |   |   |   |   |   |   dpkts > 7
|   |   |   |   |   |   |   |   |   |   |   |   |   |   |   |   |   |   |   |   ackdat <= 0.053317
|   |   |   |   |   |   |   |   |   |   |   |   |   |   |   |   |   |   |   |   |   ct_src_ltm <= 1
|   |   |   |   |   |   |   |   |   |   |   |   |   |   |   |   |   |   |   |   |   |   dur <= 2.197672: Normal (4.0)
|   |   |   |   |   |   |   |   |   |   |   |   |   |   |   |   |   |   |   |   |   |   dur > 2.197672: Shellcode (3.0)
|   |   |   |   |   |   |   |   |   |   |   |   |   |   |   |   |   |   |   |   |   ct_src_ltm > 1: Fuzzers (4.0/1.0)
|   |   |   |   |   |   |   |   |   |   |   |   |   |   |   |   |   |   |   |   ackdat > 0.053317
|   |   |   |   |   |   |   |   |   |   |   |   |   |   |   |   |   |   |   |   |   ct_srv_src <= 4: Normal (69.0/7.0)
|   |   |   |   |   |   |   |   |   |   |   |   |   |   |   |   |   |   |   |   |   ct_srv_src > 4
|   |   |   |   |   |   |   |   |   |   |   |   |   |   |   |   |   |   |   |   |   |   djit <= 239.133109: Shellcode (3.0)
|   |   |   |   |   |   |   |   |   |   |   |   |   |   |   |   |   |   |   |   |   |   djit > 239.133109: Normal (12.0/2.0)
|   |   |   |   |   |   |   |   |   |   |   |   |   |   |   |   |   |   ct_src_ltm > 4
|   |   |   |   |   |   |   |   |   |   |   |   |   |   |   |   |   |   |   smean <= 62: Normal (3.0/1.0)
|   |   |   |   |   |   |   |   |   |   |   |   |   |   |   |   |   |   |   smean > 62: Fuzzers (3.0/1.0)
|   |   |   |   |   |   |   |   |   |   |   |   |   |   |   |   |   spkts > 11
|   |   |   |   |   |   |   |   |   |   |   |   |   |   |   |   |   |   sbytes <= 758
|   |   |   |   |   |   |   |   |   |   |   |   |   |   |   |   |   |   |   ct_src_ltm <= 1: Fuzzers (2.0/1.0)
|   |   |   |   |   |   |   |   |   |   |   |   |   |   |   |   |   |   |   ct_src_ltm > 1: Exploits (5.0)
|   |   |   |   |   |   |   |   |   |   |   |   |   |   |   |   |   |   sbytes > 758: Normal (65.0/3.0)
|   |   |   |   |   |   |   |   |   |   |   |   |   |   |   |   service > 1: Reconnaissance (2.0/1.0)
|   |   |   |   |   |   |   |   |   |   |   |   |   |   |   sbytes > 784
|   |   |   |   |   |   |   |   |   |   |   |   |   |   |   |   dur <= 1.112212
|   |   |   |   |   |   |   |   |   |   |   |   |   |   |   |   |   dloss <= 1
|   |   |   |   |   |   |   |   |   |   |   |   |   |   |   |   |   |   sttl <= 63: DoS (3.0/1.0)
|   |   |   |   |   |   |   |   |   |   |   |   |   |   |   |   |   |   sttl > 63
|   |   |   |   |   |   |   |   |   |   |   |   |   |   |   |   |   |   |   ct_dst_ltm <= 3
|   |   |   |   |   |   |   |   |   |   |   |   |   |   |   |   |   |   |   |   smean <= 231
|   |   |   |   |   |   |   |   |   |   |   |   |   |   |   |   |   |   |   |   |   dur <= 0.904441
|   |   |   |   |   |   |   |   |   |   |   |   |   |   |   |   |   |   |   |   |   |   sjit <= 4762.526699: Fuzzers (2.0/1.0)
|   |   |   |   |   |   |   |   |   |   |   |   |   |   |   |   |   |   |   |   |   |   sjit > 4762.526699
|   |   |   |   |   |   |   |   |   |   |   |   |   |   |   |   |   |   |   |   |   |   |   ct_srv_src <= 2
|   |   |   |   |   |   |   |   |   |   |   |   |   |   |   |   |   |   |   |   |   |   |   |   sinpkt <= 90.140846: DoS (2.0)
|   |   |   |   |   |   |   |   |   |   |   |   |   |   |   |   |   |   |   |   |   |   |   |   sinpkt > 90.140846: Exploits (3.0/1.0)
|   |   |   |   |   |   |   |   |   |   |   |   |   |   |   |   |   |   |   |   |   |   |   ct_srv_src > 2: Exploits (5.0)
|   |   |   |   |   |   |   |   |   |   |   |   |   |   |   |   |   |   |   |   |   dur > 0.904441
|   |   |   |   |   |   |   |   |   |   |   |   |   |   |   |   |   |   |   |   |   |   tcprtt <= 0.18205
|   |   |   |   |   |   |   |   |   |   |   |   |   |   |   |   |   |   |   |   |   |   |   djit <= 217.654422: Exploits (4.0/1.0)
|   |   |   |   |   |   |   |   |   |   |   |   |   |   |   |   |   |   |   |   |   |   |   djit > 217.654422
|   |   |   |   |   |   |   |   |   |   |   |   |   |   |   |   |   |   |   |   |   |   |   |   tcprtt <= 0.124123
|   |   |   |   |   |   |   |   |   |   |   |   |   |   |   |   |   |   |   |   |   |   |   |   |   state <= 4833: Reconnaissance (2.0)
|   |   |   |   |   |   |   |   |   |   |   |   |   |   |   |   |   |   |   |   |   |   |   |   |   state > 4833: DoS (2.0)
|   |   |   |   |   |   |   |   |   |   |   |   |   |   |   |   |   |   |   |   |   |   |   |   tcprtt > 0.124123
|   |   |   |   |   |   |   |   |   |   |   |   |   |   |   |   |   |   |   |   |   |   |   |   |   sbytes <= 834: Reconnaissance (2.0)
|   |   |   |   |   |   |   |   |   |   |   |   |   |   |   |   |   |   |   |   |   |   |   |   |   sbytes > 834: Normal (9.0)
|   |   |   |   |   |   |   |   |   |   |   |   |   |   |   |   |   |   |   |   |   |   tcprtt > 0.18205
|   |   |   |   |   |   |   |   |   |   |   |   |   |   |   |   |   |   |   |   |   |   |   sjit <= 6254.607225: Exploits (4.0/1.0)
|   |   |   |   |   |   |   |   |   |   |   |   |   |   |   |   |   |   |   |   |   |   |   sjit > 6254.607225: Shellcode (3.0/1.0)
|   |   |   |   |   |   |   |   |   |   |   |   |   |   |   |   |   |   |   |   smean > 231
|   |   |   |   |   |   |   |   |   |   |   |   |   |   |   |   |   |   |   |   |   smean <= 535
|   |   |   |   |   |   |   |   |   |   |   |   |   |   |   |   |   |   |   |   |   |   sjit <= 6392.339526: Normal (37.0/1.0)
|   |   |   |   |   |   |   |   |   |   |   |   |   |   |   |   |   |   |   |   |   |   sjit > 6392.339526: Exploits (2.0)
|   |   |   |   |   |   |   |   |   |   |   |   |   |   |   |   |   |   |   |   |   smean > 535
|   |   |   |   |   |   |   |   |   |   |   |   |   |   |   |   |   |   |   |   |   |   trans_depth <= 0: Exploits (13.0/3.0)
|   |   |   |   |   |   |   |   |   |   |   |   |   |   |   |   |   |   |   |   |   |   trans_depth > 0: Normal (2.0)
|   |   |   |   |   |   |   |   |   |   |   |   |   |   |   |   |   |   |   ct_dst_ltm > 3
|   |   |   |   |   |   |   |   |   |   |   |   |   |   |   |   |   |   |   |   state <= 7737: Fuzzers (2.0)
|   |   |   |   |   |   |   |   |   |   |   |   |   |   |   |   |   |   |   |   state > 7737: Normal (2.0)
|   |   |   |   |   |   |   |   |   |   |   |   |   |   |   |   |   dloss > 1
|   |   |   |   |   |   |   |   |   |   |   |   |   |   |   |   |   |   dloss <= 2: Exploits (14.0)
|   |   |   |   |   |   |   |   |   |   |   |   |   |   |   |   |   |   dloss > 2
|   |   |   |   |   |   |   |   |   |   |   |   |   |   |   |   |   |   |   sloss <= 3: Generic (5.0/1.0)
|   |   |   |   |   |   |   |   |   |   |   |   |   |   |   |   |   |   |   sloss > 3
|   |   |   |   |   |   |   |   |   |   |   |   |   |   |   |   |   |   |   |   dmean <= 53: Exploits (4.0)
|   |   |   |   |   |   |   |   |   |   |   |   |   |   |   |   |   |   |   |   dmean > 53: Normal (7.0)
|   |   |   |   |   |   |   |   |   |   |   |   |   |   |   |   dur > 1.112212
|   |   |   |   |   |   |   |   |   |   |   |   |   |   |   |   |   spkts <= 112
|   |   |   |   |   |   |   |   |   |   |   |   |   |   |   |   |   |   tcprtt <= 0.142785
|   |   |   |   |   |   |   |   |   |   |   |   |   |   |   |   |   |   |   trans_depth <= 0
|   |   |   |   |   |   |   |   |   |   |   |   |   |   |   |   |   |   |   |   ct_dst_ltm <= 3
|   |   |   |   |   |   |   |   |   |   |   |   |   |   |   |   |   |   |   |   |   ct_srv_src <= 7
|   |   |   |   |   |   |   |   |   |   |   |   |   |   |   |   |   |   |   |   |   |   dpkts <= 9
|   |   |   |   |   |   |   |   |   |   |   |   |   |   |   |   |   |   |   |   |   |   |   dpkts <= 7: Exploits (11.0/1.0)
|   |   |   |   |   |   |   |   |   |   |   |   |   |   |   |   |   |   |   |   |   |   |   dpkts > 7
|   |   |   |   |   |   |   |   |   |   |   |   |   |   |   |   |   |   |   |   |   |   |   |   ct_srv_src <= 1: Normal (19.0/3.0)
|   |   |   |   |   |   |   |   |   |   |   |   |   |   |   |   |   |   |   |   |   |   |   |   ct_srv_src > 1
|   |   |   |   |   |   |   |   |   |   |   |   |   |   |   |   |   |   |   |   |   |   |   |   |   spkts <= 11
|   |   |   |   |   |   |   |   |   |   |   |   |   |   |   |   |   |   |   |   |   |   |   |   |   |   tcprtt <= 0.115728: Exploits (3.0/1.0)
|   |   |   |   |   |   |   |   |   |   |   |   |   |   |   |   |   |   |   |   |   |   |   |   |   |   tcprtt > 0.115728: Normal (10.0/1.0)
|   |   |   |   |   |   |   |   |   |   |   |   |   |   |   |   |   |   |   |   |   |   |   |   |   spkts > 11: Exploits (6.0/1.0)
|   |   |   |   |   |   |   |   |   |   |   |   |   |   |   |   |   |   |   |   |   |   dpkts > 9
|   |   |   |   |   |   |   |   |   |   |   |   |   |   |   |   |   |   |   |   |   |   |   ct_srv_src <= 2
|   |   |   |   |   |   |   |   |   |   |   |   |   |   |   |   |   |   |   |   |   |   |   |   dmean <= 51
